disco 0.4557889140282154 -0.0680552070606921 0.13427563167934725 -0.3197618884476929 -0.7435498050793274 -0.0015990859317243503 0.13029605489844814 -0.14535947295808407 0.30282288460688406 0.11346954489323424
lascivious-minded 0.41096254734007387 -0.09470006278711492 0.1209827275235698 -0.2688968747212425 -0.6525629385206407 0.017214000076213872 0.1868746811217279 -0.131998529444425 0.26041431483340666 0.104457358753233
precocious 0.48115542399407324 -0.07620140806760882 0.14156849437416966 -0.4092724852412499 -0.8060283446379847 0.04545798297948193 0.22095584406492813 -0.17180207797257585 0.29535217263115776 0.14906943519717486
escapism 0.6289565330755541 -0.12994770894152605 0.14047876979006776 -0.4675880520559678 -0.9142110712491301 0.03620209722730417 0.19167395746457846 -0.23772621299409868 0.41445392526753333 0.10089596600991926
notch 0.5666870679232179 -0.1227680746453 0.15471805357076696 -0.4598971350995123 -0.8080573532433718 -0.007999052203102318 0.18233867028395587 -0.1613149131593813 0.3916874871983947 0.15481825813236497
stealing 0.6348874707253348 -0.14070207937382873 0.15298558749766789 -0.4634602095072184 -0.8424777526632002 0.012562406807516828 0.16039187371964092 -0.20947459209085398 0.40386268821098303 0.16894925163413202
lesser-praised 0.42469463482931524 -0.07087930857731702 0.056722862418685537 -0.32271079342010617 -0.5713197616848202 -0.040382047220911425 0.14318762018869452 -0.12391232080319836 0.23727418250567192 0.09563144532852712
wanton 0.43236699075103996 -0.14147962543172793 0.14070076938359333 -0.2920893050961899 -0.5478161150804547 -0.028134066356974997 0.107570008391982 -0.17289788107483278 0.2132801348829269 0.03435356325477674
dummies 0.5503063612611109 -0.14209291136427193 0.15519215545869317 -0.3329936051397817 -0.7807476938957303 -0.0010234228735131984 0.14627133576710102 -0.17908884914672457 0.34373178642348323 0.08194340748657189
disguise 0.6048607855432292 -0.1038343954579041 0.1800653678565483 -0.43213306225816117 -0.961175965679894 -0.0386219054289622 0.2399576165231734 -0.26333024113479664 0.3598088259745116 0.15022798637817608
pageantry 0.4897111539482372 -0.13659977292803213 0.12191136177042085 -0.4005644885477532 -0.6782457735492452 0.021431713757851283 0.15330840249876465 -0.20052569356981512 0.30481062953445415 0.052969637918287904
demeanour 0.4039332300843973 -0.06112631449059131 0.05817606101654868 -0.2631619277786472 -0.5295558451693574 0.038912815171104675 0.07325354949366386 -0.12210002344734118 0.17576968770885595 0.07234368206626235
jacqueline 0.464669125619277 -0.0998357655554338 0.17639172804837178 -0.348568659338141 -0.7423204372949717 0.048674772759014266 0.189104179170356 -0.14220992146474215 0.33645595903807324 0.148110376595022
above-average 0.5737076887424413 -0.13964562917847664 0.15122059106784766 -0.4214152273947153 -0.8593563672519157 0.005683982123804063 0.23428763042240566 -0.2532519771390589 0.38376130640925 0.11081723861562016
gobbler 0.36461767225378267 -0.0383206078651708 0.04837390000317399 -0.2839579262792199 -0.5704251350553027 -0.015930463354610794 0.1700955714986773 -0.1268126388296689 0.18771335961809474 0.03799012813684092
beloved-major 0.4444813240327977 -0.09195064535187324 0.108020802358088 -0.2991264413863933 -0.6913367074863952 0.027677097191384788 0.12310120634724116 -0.18399247804435445 0.34432163774306807 0.14765694678650196
slug 0.42745893806279506 -0.13153283955711007 0.1408401151297769 -0.31026759644754776 -0.6438107317718893 0.05062678063340674 0.17142398136872147 -0.19727222786650375 0.302668446928126 0.1203891872646096
strikes 0.7253597426455214 -0.1775028367240922 0.14916258253027515 -0.4921756418840793 -0.9597872289844681 0.0003370845471392934 0.2342447561113787 -0.21050221941233224 0.45265853250626137 0.10160874787332094
plea 0.4369258797292802 -0.13660457959242672 0.12642102555932566 -0.37531559435299094 -0.665200454324409 0.024761395080927617 0.1469114007584648 -0.19017630680264272 0.3419414821827365 0.06187282544905363
redundancy 0.5914907302706335 -0.17017333345023072 0.10212821004409377 -0.4085507085243227 -0.8592742592004203 0.0523268294594682 0.17580056907797237 -0.2326737364106879 0.3322461876933974 0.11815564641709572
zoom -0.024391697256940854 0.03321133595979953 0.029674257663061074 -0.041390787816198496 -0.0588054476092615 -0.003830443626563333 -0.00327015173966321 0.01841065289573538 0.05405741692657194 0.028441581401357757
revelatory 0.6221583611308317 -0.17080368387906994 0.18920525217718312 -0.45574681940240497 -1.0112771347096856 0.012970092435751281 0.1778066392754557 -0.19743413291794806 0.42297011577855276 0.16704256614152932
bow-wow 0.46112349283704296 -0.07224345799514094 0.1372258865610768 -0.3153032220320341 -0.7133757543371065 0.04641972986580301 0.12923882483281637 -0.17751202474115538 0.2993654401074294 0.12093938787002707
zzzzzzzzz 0.2469654263857837 -0.04122010012854504 0.09483300907565041 -0.1380480138182687 -0.3185935435611724 0.038534570096929 0.12479373855043766 -0.0646067607335663 0.19073628236374118 0.07900360427940772
pizazz 0.45938829479276766 -0.10514916179948597 0.11995299540992009 -0.3982506221547855 -0.7130050458575158 -0.030828967974270784 0.11692681750465829 -0.2001886551325771 0.3052424411775453 0.07237203019779993
illusion 0.5483063914218526 -0.13422561819643747 0.18198047351712127 -0.43564258358520724 -0.8713860766992996 -0.03603801094952843 0.23674757466426657 -0.23690410856465036 0.3644869842818948 0.13935229278912808
regrettably 0.4648490095701818 -0.07843419469705497 0.14346826552483127 -0.31943493722535693 -0.6682338857826986 -0.006094002798602985 0.19382136732138133 -0.1991345466875008 0.26259384303215644 0.13273146198991523
mill 0.5151338742753779 -0.1314412618398384 0.10607843238370322 -0.3593041409500192 -0.8146957689888139 0.03410641687464891 0.22038334702366988 -0.20192657671347045 0.35737631391232233 0.11478503763563147
flails 0.5097816167825469 -0.1289658570782114 0.15267687764022073 -0.37091086614489205 -0.8031057970033187 -0.017294345061348613 0.23421388983752645 -0.17767222585778839 0.37999578116467814 0.1041048483889496
concert 0.594929671459623 -0.13271467833245587 0.17081714320673855 -0.36167669766136323 -0.8106758456988024 -0.036616567590136775 0.20033735367859176 -0.2261136026296018 0.3734916639697584 0.09355114389296217
eldritch 0.5234244257224611 -0.10257639390065829 0.11993365671180971 -0.3393342769202495 -0.7747286883457063 -0.003438565993188113 0.1409979623321876 -0.19851742322097893 0.34738173243178255 0.10359391371801041
ethereal 0.5371242767608164 -0.18145451802498275 0.14678227854581805 -0.38445217192400327 -0.8731198640912415 0.019236384006837887 0.19032536867698607 -0.19005729524579834 0.3585441421358171 0.10475618152870396
direct-to-video 0.6181030874795718 -0.14570460554990233 0.1605659128807218 -0.4156485925447869 -0.8663775039691636 -0.006972602780462319 0.21211103958138808 -0.23768125289359998 0.3629631760162177 0.13715512862009158
careening 0.3948180804410926 -0.11295386816664059 0.13436075115231363 -0.33187438577463835 -0.598437556547714 0.02936218853133339 0.1860220482820106 -0.1603542047313508 0.3059924391622959 0.06765440396876131
glossy 0.6632683420856784 -0.1753738765186161 0.16923421990247686 -0.400652558784715 -0.9354169371964868 -0.004498168929553174 0.24571451772215194 -0.2697542432460344 0.40606296092518485 0.11797232190010508
introduces 0.6289984209012995 -0.17534531353843705 0.13461749101117793 -0.4072892123769581 -0.8253506788114926 -0.0059298995170169715 0.16056085928559402 -0.24819694654456542 0.33726890508952406 0.12622135826478328
be-bop 0.31023524115672363 -0.0352791223882869 0.11848883753716971 -0.21482028383417248 -0.4526996183814698 0.026166261755903475 0.11206064628654994 -0.10795238702735456 0.22408154012176645 0.04107350150733709
reaching 0.6659926112060264 -0.17307025629877573 0.1232966168710592 -0.5010382535298071 -0.8902791047318174 0.032136927831157805 0.2194265275530148 -0.2548711615117359 0.39009040422285945 0.09207828900637803
vulgarity 0.5719463562345299 -0.18347766599619936 0.19621258593954694 -0.37915389976966124 -0.8643588733508045 -0.045101484545458564 0.19601502274132507 -0.23233605822826736 0.36028249812397606 0.1038166792947476
muy 0.4673024742392587 -0.08554977581414795 0.09842353081967624 -0.3746534588618981 -0.7032951877124924 0.04635935587425791 0.15102641311723516 -0.2075435084132611 0.33126943352110744 0.11341543729262636
failing 0.5853900119495452 -0.17126185879916417 0.14599199266737165 -0.44003265142482434 -0.9152117513380666 0.0008322105970739714 0.23675161077286447 -0.23923348218936363 0.36649623553604105 0.142191138578103
namely 0.641215691186639 -0.18766782982119365 0.11163658359141734 -0.4485960856639869 -0.9391788247947664 -0.024314403321692227 0.23143148360487464 -0.2080597462463285 0.35687239769320317 0.17795764050454232
unaware 0.5978160974213692 -0.16700935496333916 0.10343313883215773 -0.4238767270664133 -0.8441574140239466 0.012742032924352348 0.19387958419236204 -0.15451380192353625 0.2998169253556365 0.13387429276210527
yale 0.5555256300989463 -0.09769754497158606 0.16150455217477006 -0.3660721927539539 -0.7803643632637458 -0.039388167389052944 0.15801910604002073 -0.21214226397747601 0.28340852200043987 0.155451804262377
incomprehensible 0.5966324505870689 -0.12230105279803287 0.1347675893682066 -0.4274393915757088 -0.9198748808200113 -0.022862687511406406 0.2334629873466214 -0.1912943641926492 0.4230638974939439 0.08371759005064457
heart-tugging 0.4197508518161813 -0.13933609312322526 0.12001390018449022 -0.3103909704114408 -0.5727217713630371 0.0423836852510336 0.1355958583762265 -0.11316218206807412 0.2102945786290991 0.1076666429450198
he 0.6188586267137764 -0.15241215581295003 0.13977697202166015 -0.531157724044563 -0.9271848581961765 -0.05167963020662256 0.26764697455779557 -0.2655139772331764 0.37844016198425356 0.1015581848473885
morton 0.5654844452040708 -0.10258224974028932 0.15992269622662564 -0.44355129986568353 -0.8151007630045711 0.00439909572162012 0.20936129352944016 -0.15176974070092528 0.33020525339190104 0.11953596230760022
infirmity 0.46335680239217164 -0.1419253670569818 0.12272038985879431 -0.35174666970379365 -0.6034287181620843 0.006400834427518277 0.16777850553952756 -0.19665484051673715 0.22418959809179576 0.05926170081147154
self-mutilating 0.5712780225228636 -0.08978066677860509 0.18632327609936278 -0.381060193934921 -0.785351338073972 0.04314414371224289 0.207354555690988 -0.21591507998192716 0.35079763095342203 0.09320692242907128
chelsea 0.6864010615468744 -0.12329661904728458 0.19413553375248363 -0.4699240019321367 -0.9718032321810929 0.025213627939412352 0.22254261489116522 -0.2676558434034649 0.3653879076926012 0.11769306534122617
underachiever 0.48912586785377693 -0.09632457564504204 0.14780537207764222 -0.3443815905005913 -0.6396813609673093 0.05473174599440134 0.1941181062601119 -0.1953719020430303 0.3096631156543537 0.14277782157572844
killer-thrillers 0.48756548980211345 -0.09556927797654358 0.14014556747664006 -0.4056695543276122 -0.7642063043722125 0.040062963150228316 0.12352740848020866 -0.15832819028441067 0.36077093875792365 0.14443316915647825
heartbreak 0.5829500751671529 -0.14453908185847578 0.11741898686732655 -0.45283585453194736 -0.8042191876096576 -0.03735447843131175 0.21032552124347179 -0.1904187578302781 0.3695067585033535 0.0874077652306588
bleakly 0.5773501591325778 -0.13248835425717034 0.15923846617560708 -0.3285990681431282 -0.7673484000548436 0.030033525533952152 0.22236858266798554 -0.1934038410988565 0.34806046649317723 0.15326973602281158
13-year-old 0.4186050639588873 -0.07679830075211039 0.16681507048044952 -0.27354347264496837 -0.6178207444600846 0.01289625916605929 0.17584561619716757 -0.18110728223137157 0.27891914692103154 0.07506280642389689
odd-couple 0.4825581821480925 -0.12939364559733157 0.13223584612405204 -0.31834430632324834 -0.7339344064973788 0.002140709979204749 0.14280805024664495 -0.13521767923739927 0.2585282063328647 0.09421585286403268
too-frosty 0.4770587841201927 -0.10355302030437552 0.1154974682887061 -0.32829843816975773 -0.7292626039514576 -0.009136764086428628 0.18567983450667389 -0.21355619004255205 0.25443629092016073 0.14770658489887953
b-ball 0.5270860642506607 -0.13811343734756798 0.1171777806377554 -0.32530065100554123 -0.7161387503488372 -0.010755093658595602 0.14456754690790463 -0.21174078214071754 0.31974163907895187 0.14666825890029878
sensibility 0.6320100630336838 -0.10994755336952305 0.15328638383285065 -0.43139101622996323 -0.8869485481897371 0.01650400949921036 0.2446066011836049 -0.215890285822535 0.3227897155955494 0.12250529289677238
headache 0.5589946606490034 -0.09414261875806418 0.15628329656914694 -0.40816781872260643 -0.7688839046921131 0.0001656881569373006 0.1862399759447404 -0.24673291341498366 0.38800712589565667 0.06939992031534385
barrett 0.46157390508447893 -0.11865195807970849 0.17088957300144536 -0.3599304524756321 -0.7585212481305647 -0.019702148297019124 0.15134290682958837 -0.20479319876856958 0.29087883044005014 0.12243140776474658
clear-cut 0.4738239662367944 -0.10067315313956092 0.08358850302219994 -0.28621152779493386 -0.6081694816789743 0.0071808857396839084 0.15997975330157063 -0.12767824983767617 0.2973704114092102 0.051306670920003114
defuses 0.5662643737874554 -0.1693409817039015 0.1393903888463525 -0.391343762143073 -0.7273983624159726 0.02605931179817633 0.19573113985832508 -0.20463712159506284 0.28461305508319773 0.08660795749040501
barrymore 0.4715956869384738 -0.0725948478877687 0.14479301019145238 -0.307782689322784 -0.6735449810513949 0.04081226187051662 0.16453217932597677 -0.21792301359149707 0.2737981960887016 0.12030946076471315
collaboration 0.6451044213325413 -0.15219660617756456 0.15848733511168792 -0.4445914736057131 -0.8518131365759207 -0.01535844762113686 0.24647207096031962 -0.2328861027555053 0.35949478584936134 0.12997863431357573
hideously 0.5956416877192043 -0.118233670565223 0.17606803542670357 -0.420387958235442 -0.8603047353511543 0.049144586642814875 0.14162215114734558 -0.25187711438893784 0.3516308211630872 0.1397517176104762
wildlife 0.6040002776879735 -0.1712816780162204 0.19395693071946946 -0.4596903487774596 -0.8501371587647444 -0.04202636394867437 0.22521346607755863 -0.23619083586914533 0.31587452322033205 0.13265253195228438
saturday 0.6234320336858602 -0.09230971387785969 0.13661050286322182 -0.4278823821840885 -0.9017517745987115 0.05489873766895511 0.21405901124593854 -0.16805797341393422 0.36222126725042286 0.08003619471958824
pegged 0.46838126004388636 -0.0980845918278519 0.07845473608993438 -0.3385024768707598 -0.6019576435034921 -0.04369105260427227 0.19366876496231222 -0.16482838541320202 0.2433537491088209 0.09710320906339326
phillip 0.5375830057738966 -0.13110021072469527 0.17102469794308098 -0.33681352259550046 -0.7565923108860503 0.05276222140135366 0.15969768584110214 -0.16999267633628423 0.2780026606572972 0.12121729778219961
up-and-coming 0.565229958042919 -0.08075051473781603 0.12126934194868845 -0.33635242749691 -0.7123302627165083 -0.023614883331496913 0.194228600259588 -0.2168832971309814 0.28311001308251327 0.0854918662199064
spawn 0.4836416364001165 -0.0720090631312131 0.16211728860110802 -0.34247527265461025 -0.6041517978857629 -0.008861477764748701 0.14206943040697118 -0.16263231892865823 0.22194068549902757 0.06573522512473814
ramifications 0.34787231220629544 -0.07123346230465682 0.08086528143119037 -0.23525730698827674 -0.5058595115458197 0.043893417094663684 0.10310926537779246 -0.15861447771000373 0.17207675240220388 0.09717412569415086
funny\/gritty 0.4304445173611425 -0.08408345882676604 0.15468587432405767 -0.27927304830238187 -0.6717776659158351 0.004964730007528613 0.1320638171537539 -0.19939595162629012 0.31189440343060054 0.08999797383567738
coral 0.5804923395560907 -0.1592231504462262 0.15790270888442606 -0.35944898462876756 -0.7551827280097673 0.010800582634976243 0.19681358042048558 -0.2105481016090309 0.3499858820995077 0.15348319744253677
lumpish 0.5124348606012301 -0.11839600485706014 0.12325119295990815 -0.37275797513795256 -0.7233161051897053 -0.012345893120190715 0.20068961682917422 -0.22400490496454928 0.2954170890468508 0.1164151260620895
helene 0.5236873127249999 -0.13467266153571775 0.15091613709311763 -0.3900119921311137 -0.7003814212975461 0.052582854985263085 0.19259182397284344 -0.21890617359890452 0.3039022413241869 0.1197936789986207
entertaining 0.6236647295910538 -0.18054244250251728 0.19145494378676706 -0.4210765100218329 -0.9216331066549123 -0.030819421982229207 0.18174483289134064 -0.23081394309538256 0.38056694008182057 0.12166512382939587
oddest 0.6218704972850703 -0.19064224403510774 0.10840096575454153 -0.47503938682989405 -0.8299954635117276 -0.02717140529897466 0.2254863151785997 -0.20760211828126363 0.35426580048114953 0.10334669938003029
mateys 0.43933766697883625 -0.06551237124521886 0.14441931688943352 -0.29226258871927024 -0.6534047328360195 -0.006539691208894246 0.12412573487608815 -0.21795273210443544 0.3172447957773492 0.14218868951607605
involvingly 0.47377678279083124 -0.11012660004221182 0.15823985159673637 -0.32699117429660546 -0.6092252578845458 -0.033101618274080105 0.15832542500550162 -0.2077801525261165 0.23182671645518083 0.0874270868559911
fast 0.6589528970700875 -0.15781195289937502 0.17244096342556403 -0.43559892744996664 -0.9234496800967191 0.026772495567271327 0.16605503513427727 -0.2348126615162501 0.4221197295946242 0.10224391786139449
mccrudden 0.3780732681307378 -0.11388212285567176 0.10895381180539465 -0.2557331012989411 -0.527253657927643 0.04014344450824186 0.1372568580957534 -0.16146298789999916 0.2708457763193519 0.037751038888702994
movie-biz 0.537365589042438 -0.1414996814769615 0.1600473791426492 -0.3194193673956683 -0.7318288308235293 -0.026275039636417384 0.11795486795232668 -0.21664333300588984 0.300869567293542 0.10603319536664611
scottish 0.6517220593673071 -0.10304469386859007 0.1481523103058895 -0.4142357730760993 -0.9494147038530694 0.027444110823343585 0.20075451037730144 -0.22436685955905009 0.4255469864249589 0.10467410597614894
enact 0.4456999807685394 -0.11107487475137276 0.12609936913562356 -0.3568941364944239 -0.7119041977632105 0.050830079215973975 0.1413353634128876 -0.2263219304053269 0.26869337532601884 0.10854386124727942
resolved 0.4420737228743393 -0.13841353214157848 0.14052935890343085 -0.2930355968339652 -0.6193542344575923 0.0228712463968085 0.09309039925323663 -0.12199067309570046 0.20964499364359332 0.05739658765219942
equate 0.6166085504699681 -0.17158240338793526 0.13011986525612054 -0.39458420507105607 -0.8093543103576003 0.010179672870524032 0.22269827907890302 -0.24549303935739086 0.3052139395380387 0.12057886761004301
tickle 0.4417676621350475 -0.13263289430438774 0.09842584942605635 -0.30961683477551466 -0.6007749972682217 -0.016622583835423255 0.1662111328855561 -0.10313029406428116 0.21349657624055934 0.045220065495119
lagoon 0.3135273324917999 -0.03815984927187019 0.08986995245598253 -0.18461868162321501 -0.45724105953245614 -0.021598040799128658 0.06278201918290903 -0.16382621372749898 0.14816533451433153 0.057912252639708776
greed 0.6697976970748198 -0.10902591498132728 0.15594827039250864 -0.4370337361581099 -0.9168065747534873 0.041091166129085505 0.22031493033877275 -0.27244651611867426 0.4411111429255232 0.1780647182668266
b 0.6443725717554313 -0.10676288903931903 0.17887160732498103 -0.4449149173136074 -0.894177127875487 0.00015869117848461498 0.16861305459112336 -0.20915277145862113 0.43261909674780835 0.12926200941691868
schlocky 0.5601870287298069 -0.16168489093609156 0.1226227314861012 -0.428157810849805 -0.7804851376157328 0.047168560958034976 0.1909447267536869 -0.19187793780812534 0.36712910694410644 0.14726318611311784
impossible 0.6335960922290227 -0.1738257370596203 0.12670241991623846 -0.45881483507174303 -0.9234185726222242 0.015395055813372062 0.24770497302608588 -0.26017688020207896 0.38986851542051404 0.1662481380344531
schmaltz 0.6382188946828937 -0.1604350183444043 0.15602102874817222 -0.46899516499580557 -0.8569267355007185 0.017336248426392937 0.22926249006000438 -0.21490474577659735 0.37248540545016706 0.17444344454989708
undisciplined 0.5273970995541765 -0.09778649116625171 0.07858316377728736 -0.3161046392203647 -0.6953959827652181 0.019121273019599157 0.1424500396726678 -0.2216472510387574 0.3334652223689035 0.09251923800408657
repulsive 0.5400085418867473 -0.13828882369897014 0.17412234682557817 -0.4258170881470752 -0.7841662607134197 -0.007517438587793597 0.21501261799953256 -0.21639622610911288 0.3423416826575964 0.0919279134910568
deserved 0.5802205705965685 -0.09793498787518803 0.17497657705761022 -0.4572966343164846 -0.8991684520850158 -0.013295600192039481 0.19770501955474265 -0.22016742964601124 0.391606741698487 0.08310377911659819
mounts 0.5484727779713259 -0.15505405160397173 0.17789985213963422 -0.42197351293033475 -0.7614996305829702 0.030428660872843762 0.14723416884744106 -0.15165947139305885 0.32615535514038724 0.1097251084118574
educational 0.6359383878777414 -0.15351622365224663 0.151859538281863 -0.3899254157157872 -0.8216848742198056 -0.02878780047496703 0.23916312383351337 -0.2523227331998848 0.360897003194438 0.11247983197920268
distillation 0.5058133769903038 -0.1680017700120431 0.18987393132217997 -0.36642512890453716 -0.7711698622105971 0.01064949151276991 0.19113721657744878 -0.198107784304398 0.30124489786952113 0.10255386872536597
curmudgeon 0.544296491959383 -0.17905286938245146 0.15745587334428113 -0.41358729223645946 -0.8670756651449325 -0.04045331167498251 0.14568797526414357 -0.18300385200446298 0.35362963883872034 0.1031577191017311
consumerist 0.5400650929225301 -0.144596287050562 0.10173857067817613 -0.4108146071536196 -0.7340962452289456 0.030729798675617623 0.142577949952442 -0.22227555964892629 0.3153635287046858 0.149513880180322
conceptual 0.6028650582218985 -0.1525429864487814 0.17794383072127198 -0.3894850780986234 -0.82975120140494 -0.0005075342954289504 0.2351140098851757 -0.1703073853684626 0.38986697387307984 0.08543116971560201
breathing 0.6008198209257206 -0.11852931990665974 0.09960697369689633 -0.3960794198516291 -0.8210171360266025 0.043800611752985705 0.20894426310896988 -0.21970214176008637 0.3339056034965266 0.10049414821139373
lower-class 0.5069065592404821 -0.09392026767058821 0.16074573030226025 -0.42840483715562305 -0.7434987361914062 0.005246627878046341 0.20732636441527383 -0.22079631135685016 0.3257420487768162 0.09093002989357132
1873 0.5241521963616844 -0.10382759169093658 0.10046399628522838 -0.33780341345809795 -0.7070601549868206 0.0435429264881083 0.1445328569095547 -0.2044056168429164 0.2625960691962109 0.08353290309922767
cliche 0.651951954937649 -0.21290204104414986 0.15839339955515866 -0.4952249305757417 -1.0064513219519884 0.043531658513475915 0.26101391235079435 -0.2732282339999208 0.3666299477503861 0.12855417975273337
excel 0.451441340938365 -0.1547178897871353 0.08665188521555263 -0.3626755613350635 -0.7011949156141357 -0.04365903078465679 0.17885460820373933 -0.19153195816842467 0.3041589059430723 0.13951298914081794
wizard 0.33539403366010223 -0.043973708626758215 0.08708738879942671 -0.19979674278230186 -0.4905172042643245 -0.01758477988572496 0.12006760933877277 -0.12302761052798745 0.19428092924666868 0.07468182685995729
tedium 0.6224164153352436 -0.16362869944463132 0.1399883645849026 -0.4366350630480237 -0.9208828430839494 0.0342212172437265 0.24567212135341934 -0.236058908846051 0.3936717061436526 0.11676885304430397
eight 0.5892672436595494 -0.13985233997350005 0.16141994398056322 -0.48626996012826046 -0.884014032933614 -0.028551459460910145 0.2539577433822957 -0.26874289268798063 0.39258925009487167 0.16538523071229497
proportions 0.6970376220292879 -0.18001820851461064 0.16845624417738206 -0.539727675391317 -0.9465757849893355 0.043753360934472726 0.26618727120692576 -0.2863420983287154 0.4040368372020023 0.11873890411342793
grasps 0.5841945118422288 -0.12006718907141972 0.18405951588264016 -0.36785214770481106 -0.8111162474805524 0.03615766143669136 0.20294033092134298 -0.2206526989035088 0.37277412256607195 0.146389258573853
nervous 0.6101021970754387 -0.1239472094653044 0.20581978451285615 -0.5133322255948914 -0.9278379038232039 0.051901236479734346 0.259136320801706 -0.18655271349000652 0.36133525348267415 0.12891005870847871
often-cute 0.500223642656145 -0.15537993270267195 0.0913692458963216 -0.29100988965810054 -0.6247831086558302 -0.03290576110759082 0.14813196560466682 -0.152042847019061 0.29584380603378463 0.06907013845630441
gremlins 0.38753676413992855 -0.07579223994243928 0.1391164388831568 -0.24152458355667325 -0.5125101623013916 -0.029793756594149023 0.12903345866142932 -0.15595121655792554 0.17990276229200433 0.02522947713754345
overdone 0.34909893879989917 -0.07300004897624217 0.10905413186814378 -0.2562872596446351 -0.48676981961560734 -0.042360652731649864 0.08339223880468323 -0.08845217803415044 0.21519333145919298 0.0750350382431357
seriousness 0.6179044252429873 -0.1963357479469065 0.20321936531329846 -0.42016973299932014 -0.8728251869485638 0.048272813018723104 0.22490904977661516 -0.19764760356820804 0.3808335485467863 0.12985173625482638
forwards 0.4933332375889175 -0.07167293042736156 0.08543483025943328 -0.3478457411496118 -0.6306909139791054 0.011661104150719201 0.15593401835958998 -0.2059436311778999 0.3254360239572051 0.09777131449177229
exposes 0.6022929763484518 -0.1120081538376282 0.17102784199274154 -0.47383230456533726 -0.8971139083749946 -0.013759890616522297 0.24311814839901177 -0.25978412622761227 0.34889935634690716 0.12013207955535073
antitrust 0.5434899447327565 -0.08808743248932625 0.10890820461837296 -0.31336708959967147 -0.7117359697708916 -0.0052177844890824625 0.14073216589059293 -0.14005350862953378 0.2599878209226703 0.13310332197931318
delighted 0.5283116640029148 -0.10756356899251866 0.11953532905383461 -0.3835088364133046 -0.7550397010105688 -0.034218423072771655 0.17243645867666202 -0.23123140988116372 0.3035421598825511 0.06499383632748396
show-off 0.47390559934566334 -0.06825737547564419 0.1146448766420543 -0.27013538206517046 -0.6138785204771293 0.020455058322403952 0.14462322285276075 -0.16432639600447377 0.23951068046671534 0.12152986232587004
machines 0.6136940964814268 -0.1634372081888823 0.14616023642458464 -0.42110382040129274 -0.8571496892389036 -0.0329130157077844 0.2364074701468553 -0.18188386516447802 0.3469491464081528 0.13400934856962707
byways 0.4721559311118696 -0.08009921490593082 0.12685274916895925 -0.33554322280745136 -0.630957926030731 0.03656440758183759 0.14926113729125642 -0.15345289557522626 0.23695835731354534 0.062255774732937065
dismantle 0.5060234500311048 -0.07405934604145893 0.10259981476382912 -0.2986168279397143 -0.6332244765991611 0.05436907617707341 0.11622051273784428 -0.18076480148137444 0.2937337702922473 0.13942626428801336
scuzbag 0.5817145218373574 -0.10186598958503175 0.1707288936945445 -0.3997126090929098 -0.791802896767738 0.014301073000524703 0.17990627088304173 -0.16032162214243326 0.31075275967748556 0.15174988286939642
ribisi 0.5716633837513356 -0.11331811397925019 0.13485989891045808 -0.3927887204798337 -0.8419393814297739 -0.0030498396465414063 0.24167807688008403 -0.18261086071123964 0.36360700541549706 0.07354963087887847
virtual 0.5170349075720542 -0.12048720511498082 0.08797966170000261 -0.3648098428100066 -0.725431182069884 -0.021424398995546705 0.15433969722894958 -0.1768220437310577 0.3419379317519429 0.12891439617041164
psychedelic 0.54492736071964 -0.15052375305281418 0.1599974730981796 -0.3960977108085685 -0.7862695704375976 0.03212884530084115 0.19200679562857512 -0.19086279846951879 0.3815863665576824 0.1435156385925234
nowhere 0.6308464282874392 -0.20287802864763912 0.11764758344211645 -0.4508045461621697 -0.8900018849389058 -0.010968553448915142 0.2624038534681434 -0.19880422002546297 0.37044856593988046 0.16951703160718407
unsurprisingly 0.3829925911900006 -0.11111946838037924 0.07075776733287427 -0.273313010526755 -0.57631607022183 0.04725988198892695 0.15619473793763053 -0.1640768650102251 0.22562999573390222 0.047942009773348095
well-executed 0.6030993219487244 -0.16030809400580437 0.1879463351322152 -0.44054309582136986 -0.7836525004290474 -0.015034307476810043 0.2137131822114579 -0.17064648949544067 0.3121553641529231 0.09046693959451885
retribution 0.48044176301900837 -0.0834734230650155 0.0744531310787177 -0.3410164217324649 -0.6573746509573125 0.052359445489517084 0.11614825675153805 -0.13088102663253087 0.32251952382724375 0.0761860686464026
cage 0.6357219152688015 -0.1910238617287007 0.1442495347805089 -0.5081002215590994 -0.935456431156612 -0.002306912898832184 0.21214963770902803 -0.2457338209771809 0.37017552932434633 0.12912847157719426
attentive 0.49439982565857005 -0.1256389562422625 0.12504360148090335 -0.39360933620216176 -0.6729428713101635 0.016438956544415205 0.1915835032324075 -0.15633212159524745 0.3172005975933379 0.10058591014065932
free-for-all 0.41785935764016785 -0.08173882531411017 0.15997126613376866 -0.3397371001304792 -0.6843709390717773 -0.020929775109518257 0.16477716708440934 -0.19617734188803446 0.28848078297812696 0.044197909066091785
lingual 0.380211529957818 -0.051863862692791994 0.0955913673272043 -0.3321156761819188 -0.6521801723980133 0.04426489504148102 0.17804601175027224 -0.10654612407904185 0.24831392341408898 0.06573837527546206
gangster\/crime 0.43383583018063676 -0.10383222354157653 0.13459592730839637 -0.3737785484205794 -0.666907198260944 0.005974684287563948 0.16454595187646567 -0.147345493259171 0.2818199542566626 0.055021200681044234
crimen 0.637901849341501 -0.1792708996763847 0.15067727537348866 -0.4182663897886685 -0.9124900607504416 0.007912306522204452 0.19196631342911039 -0.19049029049034166 0.32309476087326544 0.08118742964765849
unrelenting 0.5830965274860739 -0.12330233146751222 0.1381497646867362 -0.3890107081945577 -0.8427017297412106 -0.016039479119159473 0.21891384767457447 -0.2251628984863787 0.4015723776104152 0.12928967415088943
eponymous 0.6191176169053998 -0.18082538030608244 0.16934185654062864 -0.4813951872598109 -0.8686472993458082 0.04172641691809503 0.1661451293304846 -0.21798136687081146 0.40600116412535353 0.1066954652882438
waters-like 0.5503318795258996 -0.1673510375128212 0.13568011326321794 -0.3538249304777315 -0.7514030821218334 -0.03681701058052649 0.1794602174536604 -0.14273120068464337 0.3185016442855561 0.09352957892140755
olympia 0.4758519225299796 -0.10146938466213692 0.1488713840255097 -0.33221337502800646 -0.6308900902206823 -0.04093421949646309 0.172963142259404 -0.18039756378747396 0.3255559461144621 0.06880488150790291
pipe 0.6036381936089604 -0.12064015657972867 0.1181749311341247 -0.4039447843852521 -0.8644749322607727 0.005249664682132152 0.1709542524601877 -0.19528587191600424 0.4110423392110589 0.08183502346599414
rintarô 0.4538726203809111 -0.07179241953187719 0.09021140224294528 -0.3614367678465225 -0.6529549318182963 0.03786652285718079 0.11454278687025055 -0.19086324913999528 0.2751557483721972 0.04387948075619283
bodacious 0.49531393262364 -0.16552099432335832 0.11729064082988944 -0.366059404701175 -0.7588651332374305 -0.02855812873122056 0.18197251268583897 -0.19798807067386884 0.35254769331641767 0.1069201656326814
liberties 0.598207132342914 -0.09888216399468511 0.09680628995403512 -0.3966818215424638 -0.8398905450390078 -0.022018539284052 0.1597820349660986 -0.25019593118097927 0.3649978720534451 0.1437917566370223
aided 0.5071495755742733 -0.13698980869739485 0.13363581885540327 -0.33433879056530325 -0.6656655305707035 0.017374896206484934 0.1362723370670249 -0.1346101289951153 0.2865379756666 0.05413312387382249
charity 0.5242652195958776 -0.08508306568816663 0.11620249850348652 -0.32404219564893477 -0.6848113620277997 0.028517120092661743 0.1934135207661019 -0.1264942642464158 0.3356516232843538 0.07738738298695196
g 0.5523706135182807 -0.09892909161262212 0.12529556203107167 -0.3907590427383789 -0.7852087578415472 0.018287558636448337 0.20205639034826703 -0.2111206773605696 0.29454149884214736 0.08233054394638076
uselessly 0.5411249844822995 -0.1505579148029555 0.09632141674959223 -0.34180996914424583 -0.6983722596141168 0.05238575764467492 0.1883322352549625 -0.21984378306036145 0.29946792252567533 0.1265097109003185
asbury 0.5537885761596468 -0.16033734296014696 0.10429856704592673 -0.3693632887391037 -0.7839572531341485 -0.03265702719231762 0.14421583376942945 -0.20186515572913263 0.28989809288087093 0.16162011910931307
response 0.5991354121014377 -0.17749466138983655 0.1406983549896688 -0.3799321887280843 -0.8969805005754461 0.036273128334862355 0.230619282271292 -0.18923885032677173 0.36556824049471126 0.1684250563515537
primavera 0.46106003700465176 -0.14941629176549534 0.1263876600327856 -0.3570829880379762 -0.6757843440946194 0.05523704655824151 0.18472090865610116 -0.19564148883510493 0.27014104614561724 0.1292170393948003
loopiness 0.5156853645948871 -0.1697045062113593 0.14161953376909459 -0.3973599318531865 -0.780549363671518 -0.017498592799208013 0.144752726497086 -0.22118776512894386 0.33117149813266883 0.12555397402125412
unfortunately 0.6702443771807733 -0.14027844652994412 0.1965095636862027 -0.45186215849254086 -0.8913733452519614 -0.043104253154508894 0.17142584976995992 -0.2514935031435142 0.3631185737755664 0.18035183164721938
guaranteed 0.6051437167823943 -0.14680380552022645 0.18442086649623265 -0.4976383764240462 -0.9679152430898742 -0.005518774828500992 0.26047278389343964 -0.2249639509409467 0.3799397555676297 0.1403667580302698
embalmed 0.4364461543999903 -0.09149560693436944 0.15816025642901824 -0.33937025830798034 -0.6716385795082334 0.057142339836932635 0.1628580953637022 -0.1795640818539529 0.3041048736899721 0.08376063158108574
broken-down 0.4603537095033482 -0.111852822741428 0.15208287767637269 -0.3343542815713658 -0.6053378024348 0.008137874475405617 0.11927833523762274 -0.11411833149637 0.2644065913139378 0.13194041755880623
texas 0.46634588156058 -0.1264509464380562 0.11817334079966145 -0.3842047707654959 -0.6567415931083385 0.021861590012011746 0.14102106440057915 -0.15941106514449654 0.3311629891272367 0.10320657763326882
pre-teen 0.4286369663931747 -0.08647500677915457 0.13364466825055346 -0.32419066972227717 -0.6149069879996933 -0.02581564011621495 0.1488301184417208 -0.11808642275175732 0.28707210097288643 0.09635249160168778
terrier 0.37198839794566146 -0.11060267614694706 0.08298266831424972 -0.31230096896074416 -0.6281994683877267 -0.04484802629001659 0.15749784226689306 -0.13142705117510026 0.28434556884881695 0.0933387218873908
drama 0.649572887718477 -0.20155697874278114 0.14362065395134624 -0.49295145736589047 -0.9686234451359564 -0.019230758385925712 0.18400863263114364 -0.2336753081055697 0.3421061092379325 0.18740487692905966
through-line 0.5517150621508131 -0.10478738312209723 0.14948913965501726 -0.3380629910764665 -0.7958663385520326 0.02514803179549394 0.1382243479325458 -0.14546164400710787 0.34148389627334247 0.08520033601833366
pornography 0.4708445047617627 -0.1438597043558441 0.15322030600863815 -0.2966230712419205 -0.6591341236653724 0.0075330806371681856 0.10457091629030225 -0.12015114472533785 0.31339972104573627 0.11181987039771345
old-school 0.6565599131770037 -0.1309371500448433 0.14445524150937544 -0.45592138801913384 -0.916864615373541 0.024534141576443635 0.1551046459241013 -0.21280032709619467 0.4078519407584271 0.13538818060925803
clashes 0.5496807301956094 -0.1662208997313568 0.14990433943055487 -0.36336008497126737 -0.832255943012799 0.008472972329996243 0.14523860388806953 -0.19703964199201818 0.33184064121617785 0.09039461613505584
colonel 0.43646907030996573 -0.075359376287142 0.07221556578870418 -0.30324432318086475 -0.684898794650695 0.011085018709229835 0.15026951716137285 -0.13393032147915743 0.25013204005621775 0.12215643624102548
patter 0.5055457510711582 -0.14968561131501687 0.1711624781473315 -0.34156882994259574 -0.8060139684609532 -0.008085996934276043 0.18987525634603133 -0.18289880209073656 0.3556195216614927 0.09344205093916746
avoids 0.6437289239383609 -0.1405083495484844 0.20328231627232207 -0.4387734712307878 -0.909755698840342 -0.011312030850550046 0.228676808298989 -0.181714251809906 0.3376090421187515 0.12486772876941014
eroticized 0.5586610971694681 -0.11738753644001337 0.13061210909883617 -0.34230919326418857 -0.7373372613651334 0.03630905697590734 0.15047575911585276 -0.2172014328992995 0.32903298690948246 0.14140032272290073
triumphantly 0.61147764070319 -0.18017706698018432 0.19878670850395433 -0.39594066247241977 -0.8692206945232611 0.019789179659374156 0.17264582330112035 -0.16878807179797922 0.3414967782195221 0.10387754827848215
horton 0.4504801997481951 -0.054551032504453756 0.14135683757974865 -0.32267842046911543 -0.6509779171880623 0.03491666823701257 0.10043982380534441 -0.14935079364755882 0.3080400847324088 0.13338763072554785
honorable 0.5509298241397771 -0.16892095783081063 0.1699293815463297 -0.4112817374692355 -0.7846502712533433 0.050283221514361195 0.16244380620667034 -0.24539238642457567 0.317781274543331 0.07601365768898721
critic-proof 0.3909378441394532 -0.05635302574799074 0.125316215662913 -0.2640259776624069 -0.5676591924788642 0.04766588280041699 0.09649252551086372 -0.12751544121050815 0.21119209693944266 0.07647277829559156
super-serious 0.5244389676960333 -0.10222499989453468 0.16884353529134996 -0.35537554619980716 -0.7507956153196345 0.043776324880687514 0.18456193917342345 -0.19200009587283254 0.26334647780562637 0.11691431049761375
kathy 0.6267275451571684 -0.1097417378278153 0.14701733872024747 -0.42390093543318674 -0.8411168104045363 -0.01888592877594895 0.2412366643412145 -0.20612897722368678 0.31691515690331157 0.16216189297890066
lighthearted 0.6053018004139646 -0.14358047240790042 0.17697020194467897 -0.4399621812619814 -0.8604799591670712 0.05701654143946621 0.16182391911915606 -0.20435338669352524 0.3536718660745174 0.15114538463712876
tissues 0.5434367360989171 -0.14493861382339063 0.15308638530953705 -0.4086824271564294 -0.786005911575737 -0.03557148490204542 0.18792227190194707 -0.20308092635644714 0.36694824167781837 0.1016881634550473
cake 0.5704538500655278 -0.1555211332787511 0.13140672842360948 -0.39424680913234145 -0.7712554751020833 -0.024326568325356932 0.1402841208441774 -0.17006624710684068 0.3090076435021061 0.09937709473164041
maddening 0.5396711818762017 -0.11367170190463995 0.14773551007588873 -0.42615000291165744 -0.8079239109339768 -0.04086816102532913 0.19870771635513285 -0.19965903879349525 0.3108431335503907 0.10688932115603078
affectation 0.5464185524175342 -0.13450348072855953 0.14568122367495565 -0.4048393132209059 -0.8168495076413479 -0.0009750574940411718 0.15853318509779585 -0.17400891378789915 0.36222591441669116 0.15503607968990876
bender 0.4450919102204089 -0.10862817389152438 0.15833685331234 -0.3623031346646979 -0.6651106170686457 -0.011377382872415532 0.1636901714671098 -0.19202089656010443 0.22718690568004787 0.11375926161887633
traffic 0.6647560208378893 -0.17311984476160366 0.174641948400052 -0.4553962007158471 -0.8783744543417887 -0.029533986731215864 0.21146555208259973 -0.26055173183427854 0.3581362662467837 0.17020907105879962
newness 0.3690919751064084 -0.0529346147924484 0.06497105771841499 -0.2529171602872882 -0.5472621892397694 0.012454519802132658 0.08028650026406552 -0.1707540630499597 0.2590735730194335 0.04756572922167427
kathie 0.5082540336279128 -0.06961284556906187 0.09502242638710602 -0.3732275860049989 -0.7248003707040913 -0.03704920038859281 0.14942673330838843 -0.1904738529461087 0.2606332686853578 0.13208845784788215
materializes 0.49790709362980096 -0.07951347641197158 0.09705200752127957 -0.35221487793536327 -0.6343714679754012 0.041123894439083326 0.16260496260882157 -0.16935726958645694 0.23939519690986488 0.128198825975083
hibernation 0.4505039839147926 -0.08428056034501065 0.15436772835484272 -0.27861571177247596 -0.5419139374686688 0.044561077746597094 0.11313340200375999 -0.15817175220471724 0.23292429905415438 0.09608693815960458
mostly 0.6643607713369909 -0.15812695336576174 0.14765612935780736 -0.5311925049200069 -0.9579295793230144 -0.035828161777782766 0.21442025462037295 -0.2730919055501769 0.4528106621277425 0.14096528449427825
teeming 0.5475495713852143 -0.09578351075065067 0.14741165258936031 -0.43548479007719504 -0.8826065925481222 0.05493233806747911 0.1659980200135133 -0.2037481059505893 0.39310118461817806 0.07337138018346934
innovative 0.5346585026498735 -0.13769099529810924 0.173601682971881 -0.36558308770634923 -0.8630017186928984 0.009298674596623166 0.19452070500720922 -0.20344355397677247 0.37551782370451364 0.07398537183234989
humane 0.523039592077568 -0.09162477417350971 0.17108329893338106 -0.3731914161396961 -0.7990178275017199 -0.01558068085290642 0.22769472016139844 -0.2478719165866029 0.2831161974294105 0.1590978512303442
sarcastic 0.44416233170446184 -0.0998353197764863 0.1290131266850297 -0.3417291363975718 -0.6856208137677182 0.0140174606806698 0.19591764756439947 -0.2104173819946623 0.3038229823354637 0.10144605872949596
bisexual 0.45830549494294787 -0.11196655889174911 0.07725691262034241 -0.3459048832626656 -0.6680424926122499 0.010008935436735747 0.11942321258934191 -0.2029589403092748 0.225513731994779 0.12992506087456548
dime-store 0.6430626526056314 -0.11757706474439042 0.16284107168181064 -0.442688359158744 -0.9449736962145968 -0.020807555163669635 0.22051413740167172 -0.22070959475418653 0.37449648351023496 0.10974096760870514
urinates 0.460804491859181 -0.14859317572368255 0.10672995122650634 -0.3833785755319387 -0.7014852647449593 0.056060324416336633 0.1565180095934263 -0.22017941647554037 0.24656781752073872 0.054898387886756723
stainton 0.4607344365636897 -0.09156478751766363 0.07989332850512217 -0.29912689637178047 -0.699701208135059 -0.03637109178315544 0.15970458612550267 -0.1795785609980922 0.2602382988295241 0.1318366798909517
grotesque 0.5733850604339269 -0.0995357556032845 0.1358977329499206 -0.45277987571359957 -0.8700404075390487 -0.006369995237065439 0.15952254084902184 -0.24241773936691222 0.32348003795024505 0.08177476178268678
butchered 0.550343971389122 -0.07839018795068321 0.1644351444154986 -0.31945656105995934 -0.7249673721213651 0.044122573187140766 0.1819258788866629 -0.22286568821275993 0.322279021047557 0.06939962350293288
esoteric 0.4845725677943397 -0.16364783989747678 0.1601160637394853 -0.33840928515442964 -0.7684971355928533 0.028367091058808008 0.12433648345635934 -0.18611106362461996 0.36845845109484293 0.06942123899399834
gadgets 0.6091008125684992 -0.1339377085428824 0.14973897433142871 -0.3725688940361914 -0.872335948938543 -0.030199028698216737 0.21102824554784952 -0.20875719024812844 0.3776064075946821 0.1610490867609002
compulsively 0.6417791324844818 -0.13050705146430497 0.1569279712442702 -0.4623008581331116 -0.9605764683752892 -0.029448001567615508 0.19755362448376945 -0.28790474336743505 0.38234180799179507 0.11270855903413585
inexorable 0.5358276266617781 -0.10928002863401072 0.12558430854408853 -0.34733988885845446 -0.75570791665162 0.04495369955877483 0.14285369763879105 -0.15281664541591 0.36318981609124057 0.14868088399873225
baio 0.4899843639429636 -0.06386002509224233 0.1555723220526327 -0.34432170435868825 -0.6708051837793712 -0.019656702443841045 0.11556483942408385 -0.16606805550647857 0.3203577812605721 0.1407132544816175
recital 0.45666719650122034 -0.051813655135453114 0.0906398090212415 -0.3031880258196639 -0.5798971509759008 0.00022548777109286433 0.1610101828752434 -0.16282407944253904 0.2773586912965462 0.07782561568796863
elaborate 0.6349265322266824 -0.15419238739743776 0.20871039458507476 -0.5157592089538969 -0.9639440408426676 0.03584687237674888 0.20996538789339877 -0.2779560180770127 0.3550607570390861 0.1385451094434703
codswallop 0.46374474259304577 -0.14459831010164514 0.1465734852444782 -0.3615470696129669 -0.7226679761044523 -0.040041188030678763 0.16904899806848578 -0.19625275351797447 0.29642700178326664 0.08468965447997322
prancing 0.3995595827122647 -0.11910722870545509 0.12605226138132755 -0.33642072168650866 -0.5687682053414564 0.05249930900130521 0.16097429844713915 -0.14310165345305534 0.25019502575224334 0.0766679845005257
chouraqui 0.6319110653919544 -0.16912327429608465 0.12145818830074082 -0.44389562776548247 -0.8698657115839156 -0.027045122769778707 0.1857785310327875 -0.2300292160900957 0.4021384086222732 0.12723196908281661
zap 0.3973764118254287 -0.11087204311492652 0.10373708496712206 -0.30862263330697054 -0.643626736556298 0.004748510310812829 0.1916088390916833 -0.19131941235689479 0.2724785683596416 0.05356905553313838
peeved 0.4184690708390181 -0.12543953103375333 0.05607881598720052 -0.29377739662226493 -0.6132890028127812 -0.04148209662196056 0.14801718029630906 -0.16889059347986465 0.21469337372304328 0.08982672531771503
invested 0.3772555480309047 -0.14062570001309482 0.05311606232723644 -0.2849793485867238 -0.5947394751636355 -0.004118882294110492 0.09901043354109636 -0.10536135539082123 0.2479093291492687 0.042681390951005635
businesses 0.48266069446087856 -0.09255582124373962 0.12618046610984113 -0.2723312037542735 -0.6216948794475657 0.04097103767913787 0.13624437328179403 -0.11411379246619999 0.31148454394335773 0.08572122280432613
clockstoppers 0.5774183272838914 -0.1109886957857656 0.18233329640079562 -0.39046488287307746 -0.9097684931230458 0.01468261083107324 0.24689697764113383 -0.22240250853884583 0.36787970045633195 0.15354870657471237
inflate 0.36845983698463586 -0.12116432796197689 0.12555298024140107 -0.19165050918192217 -0.45229276370266475 0.050476087716475174 0.1438701704795552 -0.11251074277084151 0.17639223284144057 0.11017371638267215
textbook 0.5288745969140936 -0.13111482642817485 0.1760343495821732 -0.3936332942698888 -0.8284789405419832 0.023554107401216183 0.15643493241536505 -0.19429170697227446 0.35985888408930555 0.13550138923071958
rorschach 0.34501921098591876 -0.08104534850550196 0.08306410627115166 -0.2790461051740917 -0.5860502463443992 0.01848520821178212 0.1324616279001929 -0.1180918414167271 0.27342169701646224 0.057698674548540586
customarily 0.517808624003628 -0.15147735832001238 0.1692107027258536 -0.3987682388177459 -0.7719065704145253 0.003179404534862326 0.15536368275996434 -0.2392378866810603 0.376853250667891 0.11700797582806688
tidal 0.507182539766322 -0.1353648823128575 0.11253922307730675 -0.37349511229068993 -0.7815827907377538 0.05678977751240152 0.15074420386419504 -0.17426855420733092 0.3346243739433662 0.06648541471864045
blurry 0.6340795141580271 -0.09736865672794516 0.1975963610776793 -0.42071156253348385 -0.8406487143359834 0.014907847233278626 0.16457285155677184 -0.22358784324334377 0.36738647077735653 0.08246239320318448
heartily 0.5122617101517383 -0.09571679476418744 0.0812936698887055 -0.3572097866758286 -0.6810611326861912 0.015566492779933754 0.18968429911108986 -0.18375810580257798 0.26047238886791013 0.08323498878793442
hippie 0.6212407795401906 -0.16184803572751483 0.1512109642520574 -0.3948793524495311 -0.9290530617995144 0.023340872036786982 0.2293247691802164 -0.1893431411660256 0.33312140178881877 0.1064963796973751
ride 0.6319077705731854 -0.13093547104493977 0.21713578954462354 -0.48701423420327855 -0.998520929600395 0.019404148340138275 0.18353573235360351 -0.22460664319438406 0.36410956356770136 0.1652724054824853
bedouins 0.4687303015521638 -0.14909022431578905 0.12544142370091432 -0.3478095120168378 -0.7273265728418463 0.01832621959015974 0.16199569829581117 -0.16827262792630532 0.352737831808154 0.08879790233381653
indignant 0.42419460265346126 -0.12103605677943144 0.12275955562564586 -0.29114352645545294 -0.5591476457662966 0.0022142112870343522 0.1525542173319263 -0.16831206400457727 0.22182353164450352 0.048001430655801466
obsessions 0.6195687088188733 -0.1307328588208413 0.12691467252438624 -0.4071922293604644 -0.8939229188077058 0.031687777857414653 0.17070515066890574 -0.24625572645569915 0.3562896665404787 0.15058369801380525
seated 0.47959576658046627 -0.13223500262425758 0.11110474702146096 -0.284453629107364 -0.7048662011500517 -0.038274453190291685 0.10965848351327795 -0.1627867717201295 0.24999026382650127 0.08430336411721205
plan 0.5575700049285667 -0.08873463435270333 0.14720200296863614 -0.4284120097427985 -0.8344690138660613 -0.026842406022392032 0.22137175564690562 -0.2607025584693852 0.31650525748014197 0.09855610346477564
combined 0.657835890097849 -0.1619689127149332 0.1414168280865475 -0.4251231942831369 -0.9148470902307193 0.04599171990620943 0.17577322217115848 -0.23171746201430535 0.40654922739835997 0.17537144776632782
gabriele 0.4582759925909273 -0.09073560096501374 0.1582873286492626 -0.3587038987133257 -0.6575157483590964 -0.0043649744299216215 0.15789001502964267 -0.20086636366921048 0.29871275556023724 0.08805418072555776
allegedly 0.5903998876950035 -0.08643068351239108 0.1260364933174603 -0.422737419696499 -0.8090619530496216 -8.906104091959027e-05 0.17283344306602527 -0.2437431223224624 0.3097471895549173 0.08889938156806655
pomposity 0.5973813112742913 -0.12217987257332133 0.13619113650084766 -0.4571638076899931 -0.9128489069528367 0.05720024301140657 0.21754183066335223 -0.24003840529902454 0.35066492864771015 0.10980254437617157
calibrated 0.4866388044399292 -0.11437466745715355 0.1653175319609569 -0.4062833335846108 -0.7292762462815375 0.0387169704948084 0.12870341008466366 -0.14341163817306266 0.34332017652986796 0.1162850919519849
soliloquies 0.5623210809000918 -0.10657659372956398 0.1673347014573704 -0.3973410904795779 -0.788581769382134 0.001499467937106891 0.20604994989569178 -0.18714216458946056 0.3513888166446764 0.09275492478348364
wholesale 0.6067631098732252 -0.10941939589054246 0.11252002414859717 -0.49056437361794825 -0.8515212175044161 0.040155737663996736 0.16917263237073663 -0.2096837184319981 0.39233954987225955 0.16785198621016445
lazily 0.5834436232039448 -0.15597074387386375 0.18173219868600898 -0.36718775612566157 -0.781301605292495 -0.02789346420714901 0.13732599524437772 -0.24768410475666627 0.36333720612414877 0.10515621174250743
thuds 0.5051936138134289 -0.09303505254989902 0.15356337054244643 -0.4142693942585706 -0.7894374738826675 -0.020742344863871033 0.17840862756820244 -0.22083613498187268 0.336905243261818 0.08871027276814038
magnify 0.5040341058455124 -0.10842527593570048 0.1764607811051894 -0.34046794066411756 -0.817914130594192 0.048483161669358135 0.17564923931882692 -0.17126710050737654 0.2896982424445006 0.08817233728967142
gotten 0.6226430007611924 -0.1326341373151431 0.17142389253668086 -0.48122588077451545 -0.9350244444463729 0.024750983978372873 0.23338624731111568 -0.19298988258453662 0.397319990392753 0.12456750300949722
72-minute 0.4247960458950403 -0.09048412773421477 0.09204128784812846 -0.28894623208894565 -0.677663771401427 -0.002635958593026566 0.15519946931842699 -0.17677215792048107 0.2967367263001768 0.10663594220140786
eighth 0.4622740465990968 -0.07525980614173051 0.15370911767569043 -0.30099492839391734 -0.6901231040071929 0.04885130614526968 0.20197238922115893 -0.14404501704827566 0.2607543208949304 0.1158555766029446
n.m. 0.4142449422524679 -0.09525220913008248 0.13049792090957285 -0.29751952935992143 -0.641036755089523 0.04411783175630724 0.1350964000511883 -0.20533475711069096 0.2796651126691723 0.053225640830792946
authenticity 0.600500088521021 -0.10309307767586237 0.12801048497130713 -0.3787908872846747 -0.8573868191324598 -0.0019190987773079504 0.22931159640038917 -0.2381514367381104 0.40790300987051137 0.13994692254704097
tiresomely 0.6688436544901728 -0.13423395256918277 0.14562360029268565 -0.502035047629056 -0.9189863093190641 -0.012838617706375084 0.23959107257652068 -0.2260321432091196 0.38626709948148585 0.1276208059581397
mercenary 0.5262371291280828 -0.08001179936931285 0.08940454556602188 -0.3624194179280212 -0.6823120394647115 0.047165548318969484 0.1423350351456238 -0.2017637166418323 0.34029025914315647 0.14448021533760494
reassuringly 0.37177942280418613 -0.046363870613820524 0.06789603186101127 -0.300330953873023 -0.5503425905940722 -0.03882855617275333 0.079966508126909 -0.16562763053524004 0.21913303470050288 0.11532126651091834
corpse 0.5981707744404842 -0.1474312633372634 0.12563265313638972 -0.46606513235709346 -0.9009444027239623 0.008518731737760786 0.23330485627444927 -0.18198896421999988 0.43314259926698534 0.1369155701101106
machine 0.6238489787007898 -0.154790661285675 0.18173535187078188 -0.4925880213319534 -0.9717617628856439 0.03849369197774994 0.17401019696685538 -0.18379939630282083 0.3619546089106521 0.09130629039043742
lustrous 0.43682680370145377 -0.12279337781510062 0.15750661464318444 -0.2966969930915252 -0.6223058965493868 0.01048748119621895 0.12641914871404072 -0.16794552864219872 0.32077736475863766 0.08804814125775115
steals 0.7175714991614555 -0.17747154586158917 0.1677333359396971 -0.469171503620537 -1.0140843678751408 0.045353852215812916 0.21392051755520486 -0.2920785442511912 0.40570362579804187 0.09965424184675716
plotted 0.691971681146121 -0.1757766990663323 0.2081102297380863 -0.46925082897754883 -0.9960891342607862 0.05368578545133588 0.17721661290639792 -0.25565514968981784 0.4516194280510276 0.09957299955567725
huppert 0.6812333229844981 -0.14210737042953756 0.182526518480333 -0.44612126002517394 -0.967246951352143 0.004782907467322663 0.19942291579565913 -0.23800285060679738 0.3893811214988451 0.19196084240385133
canadians 0.5250175870956941 -0.14347295505163546 0.14472432410313618 -0.3719334653534671 -0.7518340705345836 -0.009201106759194146 0.18809956678698167 -0.1607844971511456 0.3551461233182075 0.06513990420926495
rapes 0.4912853013834009 -0.14104723525786456 0.13002649828483775 -0.4246086557760108 -0.7540974046824156 -0.016725472333029463 0.21223873093153994 -0.16676009693574098 0.3180602711939458 0.11725931750123972
one-hour 0.5037565082948372 -0.11293023008302715 0.1629147884871536 -0.32933438001396986 -0.6877151072600256 -0.011337719450196081 0.1428950452516729 -0.14621432460441616 0.3589430056412799 0.1407704915463791
intelligent 0.6285256292691364 -0.12469848962807323 0.11776951337996515 -0.4686081180034862 -0.950779285311881 0.057846935810193685 0.17049322385117952 -0.18785577617624144 0.3870288509851361 0.1535120121561722
jaded 0.6769256387731669 -0.1812100476607115 0.14798328866786736 -0.4575686360533348 -0.8639190155177646 0.05302680392931038 0.15932375200034718 -0.24821958915486597 0.4202281690015271 0.16787355432697235
on-board 0.4387978598096392 -0.0802946114894575 0.09380159638206859 -0.312699569704178 -0.6665717942505468 0.03682017431363083 0.1387780471325453 -0.1599549193211171 0.31743125843484415 0.07314780984407629
aircraft 0.48189736029704106 -0.12845806769851076 0.14199344198239708 -0.3309145566457973 -0.7342284379372588 0.02376015277622347 0.1996608918781252 -0.19641600825984026 0.3439989147906163 0.13319639485244295
kurds 0.4770175821235038 -0.06894150807896249 0.14241556362387478 -0.32514699508969697 -0.7274122279998056 0.038879304738801405 0.18645517548517726 -0.17762735931143162 0.3306017598188544 0.12651226335618804
demographics 0.4862791149651068 -0.12138579951647073 0.11682856239327337 -0.33918290182478844 -0.6409735544397848 -0.030762830769361028 0.1821345643178666 -0.2031437311407254 0.305875728067361 0.13670313335049317
fiascoes 0.4340563980929233 -0.0947137774672155 0.07410564130918652 -0.36384873227812153 -0.6662328942210074 0.047555013826579624 0.15941551727312336 -0.21277573016256596 0.28623664269612326 0.08268440755734811
built 0.6205337019829785 -0.14522626597330066 0.18902197419271533 -0.447494075093391 -0.96984530737862 0.030615318603292793 0.24812306920716606 -0.18570371622133994 0.41292634010053136 0.17893137674241505
undermining 0.6388613368252635 -0.1730561311212606 0.1814706073305585 -0.4195521674968826 -0.9207663417092916 0.022207746490255965 0.19994533567939363 -0.23299173562535982 0.4045619668110069 0.09521370997531707
hell-bent 0.44681188356980833 -0.1407819641099086 0.0748630500900798 -0.3507535313591625 -0.7231359990398964 0.012218693844857976 0.16956113001680678 -0.1611726692360934 0.32044834681727735 0.13744641569028565
decide 0.5650317785919148 -0.15557735684342183 0.18417013028319146 -0.4108195277367888 -0.7996614370934007 -0.03249271057864669 0.20392712520680417 -0.1979123838136161 0.2768879726590299 0.10541835029432463
terrified 0.45925921631741423 -0.12235495396090586 0.14213221590071565 -0.2877130406887643 -0.5808850646226099 -0.02440683110018251 0.1607102324276547 -0.20140091488336956 0.22167052713360885 0.11922989287966647
lodge 0.5044243004672275 -0.13235440101329835 0.09358819513406949 -0.40583454443768213 -0.706126884547524 0.04578686931891812 0.21443646526748739 -0.17229955754683182 0.3488969513856138 0.07452674589675275
poor-me 0.5322790969823853 -0.15616682225704612 0.0952693015654645 -0.3497756674635675 -0.663459793856564 0.006986649765848079 0.1585083749202342 -0.17263784841198668 0.29681094825710364 0.14586829843159138
excellence 0.42879773847699765 -0.05213147746172045 0.05793941852686893 -0.3072619685844885 -0.5842550864407501 0.054996918977795184 0.08124690397533178 -0.10594375157984197 0.22162537090539472 0.055500250726700076
quartet 0.4200771336853432 -0.12278303842966713 0.08760524251012097 -0.29091752606874133 -0.6594402900999464 -1.8642360380198233e-05 0.10642933298459453 -0.16588396651788778 0.30611196951021463 0.13139301507489878
squirts 0.4506662623329921 -0.11742881213574048 0.12336080478550984 -0.35598806498309377 -0.6671604926144098 0.01441604014638416 0.1541828633974217 -0.1291688336123253 0.3176231806912036 0.13002135045066252
tears 0.6524054971450048 -0.16800393046560397 0.20824139781047962 -0.42367940998215753 -0.9044376179880589 -0.02768865028733253 0.22912142210488926 -0.21342192100386087 0.3768697683874369 0.0872261998060413
rogers 0.5030562613652863 -0.061132507742274494 0.08589066227569313 -0.34463691732028695 -0.6928834030908744 -0.034520860367722436 0.151775710008889 -0.19048003895491378 0.23998381543832967 0.11900707188456483
fortunately 0.5292117595231546 -0.13509538403971078 0.16817294202022925 -0.3584558120758851 -0.7095749995884096 -0.028221665409292378 0.20530236043397898 -0.22290063572610128 0.3390537647307066 0.08081926154443735
philippe 0.5749180251411964 -0.08363430882536803 0.1387495969682346 -0.3553551165105615 -0.8250633147032143 -0.031672298092842166 0.1573334778371978 -0.1644429590838801 0.3431995953491535 0.10841669464094487
s\/m 0.4551680897905872 -0.0913718118702556 0.10484858712064515 -0.32301955703781965 -0.6504737394907983 0.012726720466977993 0.16435699971707085 -0.18065704974054514 0.2962260642957791 0.05189018690456795
horses 0.5824899850100915 -0.12789796026536074 0.10989189122783273 -0.3474076476156655 -0.8067832099424834 -0.019337014498116763 0.16256676883989057 -0.15286766066366947 0.3801518972042913 0.15426783528115492
swept 0.5979611347209814 -0.12104418802831968 0.18743455703242348 -0.43879585272184435 -0.812553436251392 -0.01819897931661213 0.159802453219014 -0.154765393132459 0.37624905819198573 0.14026960770631267
believer 0.6357962165322615 -0.12250734566224941 0.10677705926392775 -0.37723893818012233 -0.8948706177084851 0.03435868475526682 0.2131707256083049 -0.22532198180833027 0.38078819251832674 0.07488565488419151
tall 0.646979919357655 -0.1290547132990106 0.2137018252368648 -0.45081828788735495 -0.8903863686366442 -0.030790960347557947 0.17388637728281423 -0.2351785705164388 0.42393327164798333 0.09738195556028588
cheated 0.5563119734541905 -0.17812079702947203 0.1244246947251659 -0.42318307481115064 -0.8433963393885852 0.046767247988941406 0.2232186577486118 -0.2661822147044305 0.32241770773370165 0.11262526405641182
well-intentioned 0.582289986304657 -0.12204642296166399 0.18774011856958286 -0.4644684403350037 -0.840601512596048 0.03822947558843704 0.18023738108456705 -0.26740362519029065 0.4127284757036551 0.08478846934592124
revelations 0.6372943986595956 -0.11398308069004456 0.19061679025901804 -0.4778184738698276 -0.9015272790424206 -0.03227852518856964 0.23593939990850413 -0.2706865132272268 0.40050804424059244 0.15677369606099653
et 0.6599549762002307 -0.1328382660181219 0.18213289293857982 -0.4670776847055973 -0.861566162668175 -0.03888315445083786 0.16953977209681767 -0.24767648129947514 0.40855429799439325 0.16824886847218662
cynical 0.6861421104214219 -0.18345594600704368 0.1414657015831043 -0.4869138989556608 -0.9326492554717584 -0.01267194928518213 0.20440873035710191 -0.22501037820641753 0.42426131319006666 0.14491650503960776
offend 0.5726274810568848 -0.13787041337826447 0.10849632140307093 -0.3829105668986463 -0.8909718711869512 0.024939296790334138 0.18186100908400996 -0.2253925376314235 0.3365021877426395 0.14144004672111218
vexing 0.4241198010382409 -0.11692253809448436 0.07872640469798552 -0.3379072150548673 -0.7173813449555735 -0.043124931414194476 0.12704446391500507 -0.17656967938044066 0.317075877996419 0.09601273138347488
remote 0.6715600368712139 -0.1423794170003664 0.16402279895131838 -0.49375112618020184 -0.905462036809456 0.05698688576821478 0.22435994512128254 -0.19592972366026593 0.3978764585939267 0.10626894918995028
guest 0.6015024268440383 -0.17472231992683884 0.15980272203083062 -0.41414487313089743 -0.9640086686051352 -0.030521482529057984 0.2626061695529337 -0.19588177913406774 0.37077043798416076 0.17588596157852107
ink-and-paint 0.40282922132687865 -0.11595141413752012 0.08757217329511324 -0.3358341473553973 -0.6342423773045486 -0.005494986541085758 0.1338189123471376 -0.15810937074879833 0.31054737243556424 0.09870246671916397
tasteless 0.6957766164787059 -0.11762417010072537 0.15316906590966892 -0.4248399502133789 -0.9433828928170974 -0.037106909782143795 0.22509585385826625 -0.2364147433107431 0.36113722582812263 0.12315308661966036
fallible 0.4462118659741694 -0.07319600618216347 0.0678416710914255 -0.2834156823468792 -0.630233910316101 0.05277410614244204 0.17929358248344318 -0.13559314153872445 0.2603959189311828 0.08698513920655626
moore 0.6329245386023707 -0.14586337566805752 0.22280332075770554 -0.5227693911205786 -0.9700421211444457 0.0393612040557281 0.24705627033107705 -0.239648215210256 0.4535804987618608 0.16857117570624228
content 0.6022578780022881 -0.10821426931582627 0.1827981506329419 -0.46440515206115995 -0.9067450067249417 0.027522811788148555 0.17553516840680763 -0.2472963966447486 0.35550361073056624 0.15346295974859558
snoozy 0.36761728467672977 -0.05052369916922511 0.14007451282913913 -0.2970597715302795 -0.5148624318212174 0.052596715553235945 0.12390006797185418 -0.17169898250459606 0.217690930968446 0.06338529575519432
captives 0.42494334428097924 -0.08370533791120026 0.14564196544439492 -0.3446339647948367 -0.654967978050137 0.04586867554333856 0.13319811807176854 -0.21400183103245046 0.3252056917673343 0.10196684164666855
road 0.6363501027845785 -0.14398193686112956 0.12073475700822042 -0.46508994665589604 -0.9714421957139366 -0.023271689740876633 0.19540290058185278 -0.24989140126926915 0.3632298458560236 0.0889489964488023
lottery 0.5181999249108401 -0.08913078456277293 0.0997158024482461 -0.3839481929412735 -0.7512292744000416 0.007973219702543626 0.1590818531425983 -0.21807315901070778 0.265025631477936 0.11505230105481375
highbrow 0.5820643899124033 -0.1566742869058665 0.19460746774118737 -0.4607319932270755 -0.8065409738228092 0.021669353365761382 0.2253312746538137 -0.1932769289156777 0.33352734314876875 0.09803722295886423
wanted 0.5984735875810835 -0.16929068890842 0.19913254182955967 -0.4113302474401461 -0.8480222943614244 -0.016019218529594394 0.1652413455805106 -0.24467755811571631 0.3500174066670111 0.15897346433621035
boni 0.5367420713356531 -0.12613504590481733 0.11463153527760893 -0.3689042041607934 -0.7095324095414375 0.024411777041343206 0.17688282492618487 -0.18580353440377717 0.34050543504767755 0.13873502882447264
hutchins 0.42853534491783135 -0.15783166157206954 0.12345485515402291 -0.3385480779646997 -0.7203501395535462 -0.023950709047173148 0.1579168127348012 -0.13480291240016562 0.284303538678817 0.13776237894346022
historical 0.6592792392953459 -0.13288688912446645 0.12774054778908342 -0.45104915866532763 -0.9179929746918833 0.024548983257573192 0.24797453577510992 -0.18596959185347833 0.3877970857035569 0.1573235057046393
tarkovsky 0.5893825120669676 -0.09896495921190324 0.17813370867143244 -0.44278892741603276 -0.9017389415551963 0.049144417844548184 0.19486038994190757 -0.18353017492659585 0.3765965590556307 0.14980403149488677
bike 0.6195628830813116 -0.10402168874564101 0.1564347507875443 -0.4703087748456155 -0.9173886973166501 0.02878112120955566 0.2346011841025163 -0.22430007449742168 0.35307581643007574 0.129561425563326
doofus 0.5727982596829941 -0.12128058970577717 0.09741029208336639 -0.3650417196611142 -0.800343747166023 0.010888227620748054 0.19757212540234925 -0.14420247566215438 0.3526676289938614 0.061818304296670755
strays 0.5185855225268375 -0.11529197654477774 0.15466122016193706 -0.33029597813358474 -0.732333623237518 -0.00019134419887018492 0.14261064485244118 -0.2100164997168131 0.30862962153428 0.08563033781005262
janey 0.32741152226563996 -0.09385957358314172 0.08168352188114036 -0.28550321859462463 -0.5493699135624937 0.01822331271721108 0.11569697042900266 -0.1319748689799548 0.17766730900849342 0.0476023857564568
as 0.6723291379956993 -0.1977684297237775 0.18296990704541974 -0.5248296037659816 -0.9279244392585043 -0.0019901567239472744 0.16804274158201177 -0.19036163308919848 0.36817555536583935 0.18511993156887083
21\/2 0.49650184808346653 -0.10691535087301249 0.1098784482398209 -0.3949849189565198 -0.7123140603282923 0.03295931836157081 0.13520762028117647 -0.17202341838547705 0.34495788304349784 0.06678308539102278
word-of-mouth 0.4601367986007962 -0.15196599839053923 0.10496915905099807 -0.32140250372695756 -0.681519453767381 -0.03070850620691331 0.1223365990378725 -0.18019563791427318 0.3254418109128091 0.13940241791060862
kurosawa 0.3321752874313671 -0.062003900389096735 0.13618370573178373 -0.22372450503888636 -0.5871445518939505 0.050544100718741984 0.15132758762341245 -0.09252156276049779 0.21153862559200903 0.06181620965785063
starship 0.44477829891765974 -0.13438665891326954 0.0904361219067299 -0.29801368494910013 -0.5694511446017144 0.034136338350018405 0.14166113059669583 -0.1830796886839395 0.22303922439110152 0.035594956788737774
avuncular 0.37215482850402826 -0.03879077854564648 0.05079063155085004 -0.2861348633286052 -0.5553061500514465 0.05399340758129628 0.1478588631998877 -0.0935228361593993 0.2273461095853774 0.02557894057209875
seine 0.4401565708845203 -0.11529065744954843 0.08164359146390998 -0.3073853573846195 -0.7364334264800497 -0.014612767441114649 0.16975200385617029 -0.15718932223114673 0.2976550187531515 0.13619025684149844
ball 0.6576828019932998 -0.17424771265741015 0.17962963700037593 -0.4549526155672969 -0.9503168876695794 -0.028490281647498564 0.2213379610774388 -0.26126032977886426 0.3909573400316369 0.19155668796068395
challenging 0.6325407704868506 -0.14975525879624937 0.14656565793263443 -0.46021382732953386 -0.9745511190243693 0.02480069490291459 0.22065920321920374 -0.23082126344631276 0.34273317616441634 0.14797933353539405
voyeur 0.44904113500664666 -0.10269177624113739 0.15202216803164845 -0.27776747749023656 -0.6851184301082508 -0.008655576632255779 0.18538490487545217 -0.20729793358579207 0.23796478902620413 0.13744823635154493
redeemable 0.4417148213870056 -0.041185209263323544 0.11481101552726627 -0.2978838180896319 -0.6128709350988314 0.051138387508481285 0.13276771765227427 -0.10609914844671502 0.2875088114810507 0.11075138907746816
nicholson 0.6235870520098837 -0.12403024667066669 0.15943222338887975 -0.42480815769676794 -0.8764158401414792 0.03719580972891878 0.25369879917231253 -0.20528142979282274 0.3520214672077037 0.13418190097654561
shot 0.6641926447048035 -0.20257023382558484 0.19573492677111382 -0.4551464016635043 -1.0066998223928232 -0.02397196425102888 0.19945161977619014 -0.2574240041094528 0.4259678714036329 0.17247890990154413
reopens 0.4266189930189657 -0.10412647698402189 0.11458997493491291 -0.30964299635314674 -0.6957841170637452 0.015230766253226941 0.1297305986374715 -0.13702486566360658 0.3205489402392307 0.11666090800915377
kindness 0.6251656373246282 -0.1092694329935797 0.1856277570498446 -0.3682530234635165 -0.8686626629303172 0.057878666727953894 0.2168855405000041 -0.20814006099382593 0.36921293216625495 0.12527583997056532
ventura 0.6142112048707051 -0.10936394414928591 0.16107015415916623 -0.3969887469173364 -0.8342731874022408 -0.02857459079359171 0.1499627091046158 -0.2561296847688444 0.3582462954209814 0.17005326732789752
benign 0.5431773212970564 -0.08300281873754896 0.12901939118323172 -0.4160050586851223 -0.7925840302836322 0.006943029118061661 0.19533664293484543 -0.22696931055048247 0.360422212764547 0.16329988084020772
operating 0.40492664592539485 -0.06114159623173607 0.09000138248639306 -0.32445956570470624 -0.6725739513026712 -0.010032745571679911 0.18012984360493642 -0.11573334664067395 0.2922059786160562 0.07503347296223749
bryan 0.5300608729043653 -0.13244545539152816 0.1944736976283849 -0.44199388625023805 -0.8367502861542118 -0.0348042390947563 0.2027129774093569 -0.24397978200998904 0.3695351565245426 0.08743967935190333
plot 0.6601477394473073 -0.16884020133736685 0.21407969139586167 -0.5325303887683482 -0.9119409052346409 -0.03103141374128538 0.18555738969885968 -0.21581384066308038 0.39081410133177613 0.13973145068734832
bawdy 0.6188326807601815 -0.1616886694178341 0.16047588747709882 -0.41975048170516005 -0.9358109429557736 -0.03341561919992053 0.21696611087489082 -0.23822837253744303 0.3690226397097249 0.14646844913214532
browning 0.45432321819399973 -0.08041525989196993 0.1250015440865871 -0.3840971737671657 -0.7546011708406074 0.039643066391943725 0.17718816942458218 -0.19810507796334365 0.3399008437451679 0.11169330106979838
raffish 0.46214145651007277 -0.1297833543559549 0.13796299002019416 -0.344954129150538 -0.7377792360320412 -0.0051239975407819825 0.21004578063490742 -0.19853665100541024 0.27135884538315147 0.09237486776014188
joke 0.6774065186445816 -0.10461056757346333 0.16220828707741178 -0.4560586469372153 -0.904618416669562 0.025556694641241245 0.2506548613386169 -0.2636155190637683 0.434382612868054 0.13062246962169285
practical 0.4126614382484087 -0.0477621973950977 0.1437780666505727 -0.3045061566591912 -0.6361739370465298 0.021457717964137327 0.13110024707400494 -0.12331775662554938 0.21417227633330965 0.03910044391124236
near-impossible 0.4707133402568121 -0.15246990448911918 0.16151718693383188 -0.3863333289017397 -0.6460387788330345 -0.001969808716622944 0.16663098781325583 -0.18288955908001997 0.328346057390227 0.051035392134641776
avarice 0.38207835119772626 -0.05117819238996227 0.12242261620017551 -0.3175553084885588 -0.555426873407488 -0.02930911884088626 0.145110998776313 -0.18621001197608192 0.25772507103765574 0.09849184577386745
dictator-madman 0.5096482526393973 -0.10513563724850976 0.17212467354198074 -0.3976911554233956 -0.6785655194815947 0.03147282860317307 0.14531577538933663 -0.1522438231675102 0.2715826586575725 0.09289805737079616
coarse 0.4999098563532544 -0.13448798789464442 0.11666408577738385 -0.3610597605697062 -0.7183054065464465 -0.03440326961536627 0.17283211113528468 -0.18531669192068637 0.3645709061762122 0.07468355329381637
sidekicks 0.5306122450527583 -0.10102624617715643 0.0895542350188455 -0.3639076627726343 -0.6717804296404356 0.019569961526875016 0.16084429992499574 -0.21051536647018182 0.31055223875841415 0.11680649068675181
processed 0.626175776848357 -0.15844109645106358 0.16037929734088407 -0.44733241677962216 -0.9923271750390753 0.0003580563840467873 0.26046656138469537 -0.24599195860623713 0.38041784769901876 0.12119482503847347
legal 0.6041044315794798 -0.10850273302558747 0.14746948556404352 -0.5106805331414158 -0.9853548182731764 0.05418286144679726 0.24584911806102971 -0.25946539934881063 0.3501651991467214 0.09378952014061744
logically 0.5076139199382889 -0.08029055603209331 0.17738652109243236 -0.400835919073647 -0.7166221563374281 -0.028608269756709 0.1694013432596052 -0.15920633069561888 0.33800320268802675 0.0717124466769224
gymnast 0.49969505566385825 -0.07061520440295296 0.09748205922949435 -0.3264527200003869 -0.634996597449529 -0.02884120647746373 0.13454362044956547 -0.20346358088200342 0.23785476527615973 0.10989183295574781
presses 0.4701380299155308 -0.05990426148063533 0.09074881964439731 -0.2710428534717484 -0.6248248478553659 -0.004387777118663511 0.13350607342670454 -0.10663849688240683 0.24427717626182902 0.11578934755907735
sir 0.5045803394714926 -0.09665774533546104 0.13854368931622696 -0.30340281229984245 -0.6896309569014835 0.044557692773820205 0.13172214606284693 -0.16376751664659964 0.28957695015214674 0.10397432106076698
focus 0.649667807887274 -0.15378620067309098 0.15515109280965622 -0.4540951078799133 -0.9649254805409835 -0.02681796622322573 0.18384462252447442 -0.21304581846879325 0.43561550161347995 0.1419620636148735
supply 0.6095740995171242 -0.14066349484199084 0.13951574202422554 -0.40870656570464375 -0.8650193135392166 -0.03442217695622249 0.18827837796733557 -0.17626954897245123 0.34922757576149954 0.08508184111366646
forges 0.4132442968798845 -0.08356990221993947 0.10930665873665171 -0.3079999470466487 -0.5529322953044862 -0.03945221252489543 0.14283667260976093 -0.15801350542898454 0.26944989263572866 0.08764740143317469
tolerable 0.5639266787004878 -0.13945456613117402 0.1837131749568833 -0.38923529008948554 -0.8150898791217207 0.039102062285733916 0.16803612482276745 -0.18459747479339678 0.3294432544788918 0.10464030283667429
scarlet 0.6548201366737303 -0.11638286655572096 0.12942502065860897 -0.4810448195427306 -0.9413515185449368 -0.034382790979065214 0.2669990154283122 -0.20854171253415266 0.4288708575715214 0.15281957761745515
troupe 0.42788491786684124 -0.09142068872716541 0.1311313048228044 -0.36612177464365653 -0.6260007660567328 -0.006298651969420264 0.18396853381408027 -0.15095469605093925 0.24617055473252356 0.05195781300671301
resentment 0.5524542468565016 -0.09935599037321804 0.13884305464828645 -0.43503272832876094 -0.8711512847813263 0.05718144072175595 0.16093669430341334 -0.2152015832764134 0.39309401086766166 0.08192729240664356
humping 0.47800581524326763 -0.10595110480973645 0.1556534432626205 -0.2580147432512493 -0.634412092421641 0.007930791112559477 0.15011456320231084 -0.20465303061706744 0.2820722992474222 0.09442600669732525
gaye 0.5346976855571687 -0.11216806891305903 0.16173549976397278 -0.3202380995441222 -0.7720649839332229 0.04092161879774138 0.21050733733314694 -0.15643456262797933 0.3081227742206027 0.07605225729222631
96 0.4802070972942229 -0.08346922693949796 0.13297382768152544 -0.31674534947270794 -0.6231764699137918 -0.014300245527098252 0.18580845404655427 -0.11860826873235338 0.27548196588930157 0.11224046397007648
stylistic 0.6225892165222359 -0.12362272580278164 0.16202613391472592 -0.47780440597894713 -0.9026510845818222 0.05317180175030997 0.23471122600021604 -0.2748790431576145 0.35244087693011245 0.09128844007042243
landing 0.48353151900927105 -0.07992382792202497 0.16562118648487478 -0.35190097668159037 -0.626339564355216 0.04456088929782901 0.17502428033505132 -0.1826536734797946 0.32043255574489543 0.050036704648475226
sudsy 0.551210977703176 -0.09018585928137106 0.14406574271201267 -0.40336393328853015 -0.8534962433819635 0.008252663994032426 0.19540679965921234 -0.18295680100377337 0.37588115160289925 0.11966166597554706
canada 0.6153541905142622 -0.10021251429481484 0.19174209722570668 -0.4352130793085237 -0.9273697498753045 0.05112206455699585 0.21625895823077143 -0.2145105837153162 0.3907123183855617 0.15634769749959646
blank 0.6751042792194869 -0.163206654656071 0.1658604852844205 -0.4804538352316559 -0.8726193180146014 0.0028465209386677064 0.24754160746892964 -0.20256545070984985 0.3620565204538377 0.128939403774756
moviehouse 0.48257718874007965 -0.11607348903010653 0.09969754878104269 -0.3502153225065916 -0.642940058617453 0.022873238343862543 0.17716988894159472 -0.14520479865310965 0.23442502288536946 0.05611326137458604
reviews 0.5712428617434061 -0.10373850488460144 0.17118489542274395 -0.359202716453992 -0.8091613044036187 -0.03522104834311736 0.15575387411847746 -0.21406737029760645 0.3082676772509031 0.1493232891563021
brush-up 0.44029527041681826 -0.10250501850195397 0.12235624598811334 -0.352996727255298 -0.6498483699456663 -0.03270964955267645 0.14475333110555622 -0.18485796947982347 0.24403783509166693 0.1063866812078581
kiddie-friendly 0.46831932397863346 -0.08197633638049093 0.08865723735569012 -0.29453599652991885 -0.651033940950919 0.01112875277995858 0.1114622962492063 -0.198417423260204 0.21766354386616873 0.08898984199279909
jangle 0.3785423821235322 -0.13020690023887807 0.1266022854964518 -0.3443289636663474 -0.6395849773483271 -0.008469070880688009 0.09149178088034417 -0.10846841182448495 0.2478183310380957 0.09218579079750965
girlish 0.46667869102267856 -0.08325486808511791 0.10139357214354106 -0.36543964244278854 -0.7091238044563133 -0.04153340371167472 0.1964275666844205 -0.1994145074085691 0.3439056023973272 0.1424537068942149
mourns 0.47372865000857745 -0.07209026237242092 0.12926949127119694 -0.27300182177691945 -0.6032217803668999 0.04598669271394679 0.16275901398457632 -0.14948138400480088 0.28949189666614217 0.04646805502407948
unfolds 0.6511945738522338 -0.17480517448653515 0.20770290973492353 -0.4578874480352132 -0.9501612414222089 -0.015650382561012706 0.23704976567053326 -0.18186236029006494 0.34558217719480444 0.15902303630763678
mélange 0.5103023467223397 -0.09675417693457501 0.12289251106119042 -0.3492714906027001 -0.7150956447493887 0.0038166058807943557 0.15104537666926587 -0.1590649452400786 0.325059456119454 0.13384482340916956
half-hearted 0.6299259354431368 -0.09459834026536608 0.17876091801095617 -0.443718946343144 -0.9098970143375449 -0.03837905983515983 0.18723492820814716 -0.2551846790640431 0.3966165873903474 0.14096199466964238
oddly 0.6474160890085484 -0.1384652205718675 0.14759572896567671 -0.4902908442531041 -0.946168896172602 0.0016547519732116 0.22964980808596752 -0.28645028659633326 0.37081442645379775 0.1421846282158154
eurotrash 0.446359416063416 -0.1534839571541302 0.0977743480788137 -0.3001964445916087 -0.6691269763348384 -0.03733180289801589 0.20559716335934788 -0.2169659909094843 0.3054985706992911 0.10132584320116898
fingers 0.5260225222496291 -0.13021213503624546 0.10318758784657914 -0.41395397513452153 -0.7346340508878992 0.025688679268717665 0.22427044369261565 -0.23890809063341464 0.3199806900059644 0.07902474209853905
rest 0.710931880776504 -0.16837280457463671 0.13150574843596333 -0.4501152819832249 -0.9487229341144239 -0.04230074253173241 0.19346485509380568 -0.2012727269486197 0.4114292368771079 0.18334485598596365
authors 0.48469866926558336 -0.11518144644313605 0.13351013314566335 -0.4052166414653416 -0.7628322183491624 0.050998357274855945 0.18114059292475823 -0.18817924161620642 0.3061787543496553 0.15230678729499952
cagney 0.6410143226241802 -0.16443233980685726 0.15275462875885631 -0.42587702212128975 -0.8689859697303683 -0.017791062820129665 0.17963649311306945 -0.2402628738222949 0.4117440510502381 0.17152196068882686
fully-written 0.4779647829625851 -0.06888921129939493 0.08721349536597425 -0.36054123831948903 -0.692238796442473 -0.012094370575883032 0.15686495330095016 -0.16226962277955204 0.3243896082296953 0.0558346793024458
pointing 0.5352649365041934 -0.1197736558112431 0.08830544029508079 -0.350899180284965 -0.78062705817006 0.05251424565855364 0.15055043378642552 -0.17566297593626334 0.3324786351124644 0.07071735663879417
lip-non-synching 0.4111222536939358 -0.08837850122134086 0.13116639730977037 -0.29989640222316405 -0.6569553074668978 -0.030716207614763427 0.1421775595721965 -0.19740674699368901 0.29502567519970757 0.07155981018888602
quests 0.3481170128818425 -0.06010510429290089 0.1499753621579734 -0.2432644728090653 -0.5887611638861598 0.0282056696121351 0.1445365530010112 -0.15311982353040776 0.27906049707945285 0.0347730318508148
penotti 0.43015767600586363 -0.1271508446774246 0.09347312362722553 -0.3171069240389227 -0.640069217500551 0.01823472370190306 0.1346896238801531 -0.1294736695201815 0.3310077293783717 0.11915535457492539
been 0.6180499213645038 -0.17572416127144688 0.1984624550975701 -0.5003075571689403 -0.9641375608548345 0.019819258945742137 0.17534655955838335 -0.23378353235256416 0.353978483674177 0.1227456577247179
omnibus 0.5847951394859263 -0.13391982876729192 0.15706122480414378 -0.3807918541159666 -0.8360715703886866 0.03367157101225406 0.14660771294088942 -0.1700729636947985 0.35506936809611145 0.15273222879737294
association 0.5755645331077619 -0.10787069828989462 0.10749603730343085 -0.43851670310381174 -0.8004143994681963 -0.04208984869672158 0.199407601635158 -0.22616656227643395 0.3787316473167699 0.11837793681672078
pageants 0.34885280111626676 -0.12782042244077993 0.13739085794531739 -0.2452909088752653 -0.5659156555882074 -0.01751253182788035 0.09275982624897616 -0.17303768050869497 0.21973300338062215 0.07927126114443755
grade-grubbers 0.3999468651847173 -0.08979132248781824 0.0748035704444025 -0.35367296640981416 -0.6699596496507388 -0.029650940997598917 0.17736934717615277 -0.12506753342497298 0.2212585871155399 0.04322583701754402
ravages 0.5485083401413406 -0.11831800088426307 0.13299846474393043 -0.3673773953042529 -0.7521676151146484 0.053740972931686816 0.17211070904073808 -0.18734148123549274 0.2715811387803857 0.06484848689716573
french-produced 0.3981565739144448 -0.11011419908112421 0.09412802491822617 -0.3597224993335115 -0.652141877790971 0.01918321153683015 0.15452725681854465 -0.11522088782917023 0.2965869375600561 0.0810321570083165
nary 0.6234781855983124 -0.15993410897933094 0.12156001280773931 -0.4671440098058085 -0.8304200274442842 -0.02242016836716013 0.22114583804941015 -0.20074604653089254 0.38566037441040185 0.08910131051110327
claws 0.5393488759751971 -0.1597751210446661 0.18063280709175217 -0.3633603165849306 -0.8469956721905364 -0.0013490848813424137 0.21056358907094933 -0.21535779272064082 0.3022256804509942 0.1442624355460224
draft 0.6023106579285237 -0.13169414316883266 0.13095619281878218 -0.36264127173078636 -0.7975742493803067 0.054235127552903245 0.23148953599542726 -0.2424897138375208 0.29576157777093887 0.08442697412689647
'' 0.6521535406803189 -0.19856406068276627 0.12469365239514808 -0.5134727112857591 -0.9338519010779299 -0.020045600943191855 0.2324406072386357 -0.22286003226977633 0.42210123526234505 0.1454467358567616
thomas 0.5806302719605713 -0.18252946329299022 0.1374466510108267 -0.4505959551469279 -0.8618180065164293 0.025725116515291878 0.21926820654953383 -0.21024653054720185 0.3933460791574125 0.12501552598498442
discovery 0.6333511474451334 -0.17569102758913943 0.19614864291804604 -0.5130709795226361 -0.994580213626972 -0.019180364664798225 0.2516728900395103 -0.2540710581584262 0.3715678219966924 0.12477724228286302
unassuming 0.5506577645318819 -0.11418930117221059 0.13056265813603757 -0.4234051864814059 -0.8481915616800623 -0.04289092257870106 0.22085484738865793 -0.2514048155913757 0.37948265082336347 0.07762496752972604
sparks 0.5996071601129342 -0.19115042452066713 0.209842936225643 -0.45097471664516525 -0.8988846032537325 -0.012065124110709249 0.21449065551326824 -0.23382744813701958 0.3477674338761936 0.09147811650372269
derive 0.509091255449646 -0.13812391868246496 0.07679334230983682 -0.38889972318064625 -0.7008824545326827 0.02820866438608577 0.11684534821431343 -0.20911779412145928 0.3070490585210087 0.09511010155203911
quick-cuts 0.43408632527713364 -0.12501808847693494 0.14505538733145223 -0.2612787789766576 -0.6002711271871036 0.0191782444034593 0.12796445281675792 -0.14074267907992974 0.21564674290689786 0.10477128918600496
sequels 0.6074890421106516 -0.16960499198402818 0.16440977833358827 -0.49096946079668685 -0.9534121517431016 0.015230855799044025 0.20689943261603297 -0.22734607556055886 0.4193837790592127 0.14375184694530924
pity 0.6343280950718782 -0.14942065898473078 0.21480009426496988 -0.4306243199111751 -0.9338696124807477 0.029905505987178286 0.17441197555052615 -0.25855150908490643 0.4261988031436561 0.17864086232973705
composed 0.6600217573906939 -0.16477525729636658 0.17938452657524284 -0.5183894927344687 -0.9528176629631514 0.053314440992342914 0.2626307436965235 -0.21671235378040446 0.37582733442949956 0.136868326215173
dystopian 0.4730113633391352 -0.13898715090921684 0.09113795426373557 -0.38679477951810326 -0.6960038199634262 0.013164859008723601 0.1599682856302828 -0.15227071128022318 0.3208099334860963 0.08802137742550166
cookie-cutter 0.5176264110310563 -0.1545389757494482 0.1454337533293313 -0.3525997803630012 -0.8583537033124378 0.005234973327911597 0.1575005628791456 -0.22739145528417443 0.346103105135312 0.09762865910926452
extend 0.5256215049174906 -0.14127262549613 0.11893290355555977 -0.4006616901469015 -0.7488131797692128 -0.016538553609553513 0.21742132072636713 -0.13987242740612002 0.34705232070560466 0.05469332280535299
taunt 0.4724426446885699 -0.14002910122071086 0.08449146870699044 -0.38119543110269444 -0.6939148609210044 -0.036528221348280814 0.12496630666896508 -0.21761186115016518 0.2534211848291842 0.08287551918523485
aesop 0.39111473957933796 -0.1482564385749163 0.15747246173733434 -0.3219580350809489 -0.6548213260199578 0.02572141968029239 0.13841238404761969 -0.18970363475076607 0.2973883374144939 0.10069307066059964
pie 0.6601384506425553 -0.12737579222583117 0.14661222208156524 -0.46285606056493 -0.9061838719316982 0.029682112571854567 0.19261628038654469 -0.1998069234960657 0.36377707203184534 0.1661362347818409
waffle 0.49388055774702566 -0.10839015400752945 0.0943988290168045 -0.4254197029631072 -0.7207893988758218 0.053871019317190905 0.18077940336931067 -0.24008284462616852 0.28106953819693903 0.07321308629123952
enthusiasm 0.6499000366615698 -0.1743765622790159 0.21451716360802664 -0.5006060159731519 -0.9450074614110041 -0.042034023863953746 0.23684876258679016 -0.19872580655675304 0.42764604898715247 0.17666302264907763
casey 0.5517235433663642 -0.11478812174144931 0.16091227555748888 -0.35950323828948905 -0.7653607554638625 -0.036474976801025134 0.22791685162281528 -0.24167782806541036 0.36119414816825185 0.10353679802920307
stores 0.5017404515871491 -0.12141964378657201 0.16909644475302243 -0.34774926250028376 -0.755332211813124 0.01473574618277299 0.16084541712434486 -0.14659735540801716 0.3359988510171045 0.14421989542673538
blockbusters 0.7035669456302853 -0.12681862214816697 0.15936040645759744 -0.44889600576893574 -0.9766376275893803 0.029111002389372705 0.2577036748183164 -0.21245872673115967 0.387271728024467 0.12241944809125717
impeccable 0.6716812427311877 -0.10114487863746997 0.16757253126284904 -0.4948375698874152 -0.9145999600941657 0.037521696353879794 0.20840746954714676 -0.2704018750679177 0.4235859030852354 0.08913970749406887
misperception 0.39159138382325964 -0.06350583958138323 0.15087627959811936 -0.2729421759245236 -0.5793561933862322 0.023020319002145476 0.1831003162411992 -0.18012391406975617 0.22226338989557365 0.13643462361838002
disrobed 0.45352838372189325 -0.1115507517713528 0.12999322820503473 -0.31468276025379577 -0.5669281783336886 0.04001194610624688 0.1404678927830994 -0.17458945957878041 0.21493709784884574 0.10163822564149884
tempting 0.6531089324589814 -0.1695484945339737 0.131616328164614 -0.45953443525032006 -0.9406334410997929 -0.04081231099647588 0.20433289662493367 -0.21665152997041776 0.3345485979591588 0.16644058772028783
earthshaking 0.4164858700311506 -0.07885881177327005 0.07068730071268733 -0.3068748493629521 -0.7005265632648195 -0.013126715159804708 0.15673323678068574 -0.16906663303997368 0.3099911884044829 0.061494984202193015
arrested 0.42307062380345084 -0.08651534446796288 0.142771856249986 -0.259601189970438 -0.6075477960141283 -0.012270574852004517 0.11553102107147967 -0.19361628577726206 0.25848126100115804 0.0912440406363349
testing 0.5271130614521835 -0.09979534871496482 0.17256526054542723 -0.30081104549885834 -0.6992537466121611 0.04687485564609758 0.15032791705648274 -0.19709023905291725 0.26900178362964583 0.07809706364871488
rally 0.5627810688604307 -0.17058216517936295 0.16627600172424423 -0.4596348724221954 -0.8767159832889333 0.02199873986613151 0.19678185959612507 -0.25318547080647286 0.3672462665964444 0.11758516340385533
129-minute 0.3933728464634797 -0.09462274258354302 0.15003322595476765 -0.2838285006350513 -0.5713762210007958 -0.02838157679843398 0.18757379618083242 -0.15169228311031357 0.21590203843911812 0.07533923203453173
zest 0.37474692695032885 -0.12074147139859116 0.15113416352622772 -0.3423548156874657 -0.6111785898353802 -0.01498431538642974 0.17239782738823292 -0.14089956034683268 0.27756800139863647 0.09465912957831785
touching 0.6580631565155476 -0.17910050828972632 0.20824066216190665 -0.45707257775972976 -0.876326990956024 0.043062076284558104 0.16837850441177876 -0.2664883500798139 0.40956818938431705 0.14578667753931615
jump 0.5562214803054052 -0.11825523944734263 0.11284744659205362 -0.4193558601894045 -0.8974651206961046 0.03303331218638165 0.21825943407302667 -0.17692362079633675 0.3314515453312847 0.14008805966652846
negative 0.5610404561297561 -0.17375111943778573 0.17239053188198267 -0.34651695916398983 -0.7792841595664063 -0.03884709565246289 0.19847239277355064 -0.15726025942949134 0.34092188299865894 0.07739428946034224
awkward 0.6429649910565226 -0.1649016638352064 0.1522835071258878 -0.4476021018830349 -0.8403913236437831 -0.016577932950945347 0.23025130441157884 -0.24716858864617175 0.39342829977601906 0.10645744403414344
capture 0.6338050920887995 -0.15557257264658275 0.12256815504547218 -0.4298619511334933 -0.8972930463399665 0.0292442414188421 0.23264931280050488 -0.21595858801343393 0.40141673846997156 0.16730070896083982
enough 0.6561376743097398 -0.16700168804292903 0.19084657975099498 -0.4711071587746551 -0.9207306628310261 -0.03981657370220145 0.20687276936892746 -0.15890686172046223 0.346602706811406 0.1309287714672729
flex-a-thon 0.40965146434039 -0.06873904821142966 0.14142704563618883 -0.23672903798565564 -0.5895417327469039 -0.03164008137128573 0.11473338144560195 -0.15329380666470319 0.23408383729501125 0.05059908068188897
3000 0.5877961281046143 -0.16444987570258074 0.19880958235120033 -0.43736755885969986 -0.9157923987294977 0.025287024668460695 0.20703415217036109 -0.20479069423114313 0.32456731996216526 0.15887016086638994
star\/producer 0.4021396654876622 -0.05098038351263981 0.13676596151200193 -0.3040107050402572 -0.5332647349077546 0.053665126613099995 0.17261416840674865 -0.08615967834120423 0.19481473981901 0.10067263467755357
away 0.631225424177046 -0.18807167798413107 0.17320624818311242 -0.49884101611895 -0.9912124531030708 -0.038845021470299244 0.21090809643548591 -0.2661749693364508 0.39412924263126686 0.17856003356769878
com 0.5686915152347777 -0.1616987973306753 0.19962979694352204 -0.4687265936411642 -0.914014687519104 0.001363400430784683 0.2088146390024802 -0.2437234720698161 0.40555975653971066 0.1592343660671252
debrauwer 0.5136614698918971 -0.13639615485990125 0.14833775641616326 -0.3067492366677217 -0.65358003166719 0.020084720970182903 0.21077355750518212 -0.22506749197084383 0.341968125712282 0.1398737831682093
thirty 0.5298320390729797 -0.10781456310859609 0.12369844681860034 -0.3576501985829266 -0.7533534699218805 0.030284405852692178 0.13280327340503648 -0.2055313324796535 0.33720770790257715 0.059702529187094476
calvin 0.5955272810596739 -0.15726809859300137 0.12131044897342629 -0.41347793962553436 -0.9219743289469682 0.004957984306564853 0.20831997872333982 -0.22962541936295505 0.3841122744966375 0.12407278188252456
scientist 0.5652961785800762 -0.09893875794478207 0.17194528703026976 -0.3636004629774882 -0.7873472838235885 0.01934848327429332 0.22904493577217108 -0.2537862750054417 0.3834781023602478 0.156527120283638
ironic 0.6545267856021051 -0.0955910816463446 0.14214396204355717 -0.45856275709235217 -0.920494642171545 -0.0016277441336486188 0.22685236156613042 -0.21346177003746125 0.41931006403898236 0.10268441784634896
leavitt 0.42687969999488246 -0.10196172927658781 0.09570304279555995 -0.372099835202804 -0.6909976932530559 0.05110534150086172 0.17705405904781618 -0.14079539060187432 0.24545199257244055 0.1359732959329998
traced 0.4326338095306643 -0.049272724663487276 0.1072972541562493 -0.3360601041516676 -0.6149746519950208 -0.001135059757537769 0.17084340064952133 -0.19791721067164667 0.2644411987765638 0.07812257934842622
impressionable 0.38290734733606074 -0.10702223823540896 0.0610170692020345 -0.29628060783623894 -0.6220225477455376 0.02370869094887387 0.09802247977849252 -0.11879098510672184 0.23289813439504936 0.08875316584629461
grandness 0.41890658004637277 -0.12492972538188997 0.14379410757018501 -0.32975839546414837 -0.5855480918154419 -0.015773532101425812 0.15347289315726367 -0.20543666052435464 0.31255241842510484 0.13533702279948367
small-budget 0.4550522431851026 -0.14453059261997608 0.14633292139368315 -0.3857017095045405 -0.6584266217696984 -0.03272705253643667 0.17711570594008197 -0.16225883735489563 0.2654636374775284 0.04783023555512134
victories 0.6398981939027857 -0.18578882722367107 0.16158706254359337 -0.4075986475884285 -0.88059543429275 0.041369020169512646 0.22019268952260762 -0.22997627492201722 0.3732795661563686 0.13239655136082373
125-year 0.43573116885505914 -0.11980862451564363 0.06633331801279659 -0.2863839494558899 -0.58313517334068 0.018690522722641326 0.15774955699989715 -0.1447538847429575 0.3065745282025788 0.06439924863490368
bickle 0.40971537987185586 -0.11941603413920608 0.12758393811157015 -0.3343711227017531 -0.5715954085370145 0.011030321594637797 0.18936780025175412 -0.18916187175744278 0.2550474167576845 0.06367687361882539
no-budget 0.4522721781086998 -0.1385197609640017 0.09782635193032839 -0.2566192806790991 -0.6018160067798745 0.03906332980685056 0.13652145488368056 -0.18380808704620535 0.2631674650260004 0.051957413103095124
sweat 0.6365458910200087 -0.1224383088413058 0.17178979742804543 -0.3866305582244968 -0.8718403961485333 0.005715377549422842 0.217571954425369 -0.24284178380290755 0.4030756641536941 0.13036500581936872
artifacts 0.456466148655608 -0.1337306219891257 0.08974135246098973 -0.3267734372555895 -0.7284536848520817 -0.0005356803160367821 0.1971656522286389 -0.13844600446584215 0.27541394706633365 0.13663733851201204
separates 0.5540160612036059 -0.10425393469048255 0.15343675158260617 -0.31884577019052945 -0.6914511245019682 0.03837636422531953 0.15255131545148914 -0.21114565985057934 0.30539656859887737 0.11844858320313574
directions 0.6208889992936693 -0.1386766782395294 0.1281323397731361 -0.4672375126919366 -0.9325018795808401 -0.030467930697028092 0.1710087105787919 -0.2697199566294543 0.3512000662545713 0.0833921917078421
possessed 0.4372586470289019 -0.09273854682419165 0.11750880502999904 -0.2879642718909345 -0.6678951652794164 0.03884838581789567 0.13085747150980478 -0.18651453573125673 0.25450041810825275 0.05257002065506255
disconnection 0.4630218429050716 -0.0742301931432454 0.1566177248400965 -0.32618179624130195 -0.6898114587721907 -0.023286815075918465 0.18089657975490522 -0.1709592889514634 0.2663049089869131 0.11423929565014715
instances 0.41345120998205664 -0.13686376835078679 0.11927980012032523 -0.345315294007115 -0.6732574130919543 0.027449077000811565 0.14021238988572415 -0.17594858034761043 0.22052384824098353 0.07459409112855994
complicate 0.41469585279661303 -0.07131877275549264 0.1596339237695196 -0.3118703162925951 -0.6027146935703434 -0.04282698925728138 0.1282800521798305 -0.11545013093112004 0.21784303267767272 0.08908424299363928
discouraging 0.34700817542830037 -0.08093662767671578 0.11526177817447406 -0.28519738870156325 -0.5482785790735224 -0.0399746762163332 0.1684400509237561 -0.09930251249253944 0.23084491627308248 0.09192067082405835
burkinabe 0.2623717765428318 -0.05631518489468126 0.10835448593478011 -0.2380959203657667 -0.36933058170978894 -0.0025379760605625076 0.10149773618663778 -0.06721915207160856 0.21393668734736673 0.07573778520032795
verete 0.4982864537058199 -0.164566814334967 0.1293266396181511 -0.33563338961150485 -0.7501736575012483 -0.012624598625581233 0.17607193836732496 -0.16506958739971264 0.2828528813750354 0.06983829062664354
tabloid 0.6291287147040155 -0.1058869130704998 0.18883112262471088 -0.45373378381487284 -0.8380236806504883 0.04370336200649365 0.1903973604710292 -0.17389715144419268 0.37432732261776547 0.10555890078048809
trained 0.48117305327795373 -0.134602975734779 0.13844837698145462 -0.3521241561151822 -0.6998870245681117 0.05547894891261149 0.12970961753519714 -0.15084447087073516 0.3046628572039053 0.0962363753197426
unstoppable 0.4421841430662102 -0.13123276252426214 0.09999949576405406 -0.3328240576950315 -0.597226863837133 -0.015133415827108263 0.09121617553724935 -0.13025295667927494 0.28614329141944217 0.09530568728551596
wan 0.48014265539134166 -0.0576751178196627 0.1387557262267575 -0.32990501568423264 -0.6805391693036424 0.03286142101859917 0.20064003701632827 -0.2118248496402634 0.25648205856585615 0.08513683219394727
blame 0.557873306304319 -0.1393929283492738 0.13440434199678414 -0.4435567912940269 -0.8688117620702844 0.03872050264465437 0.2289385366027916 -0.20387012850754713 0.34416923879816397 0.07755889555284563
edgy 0.6159146626932672 -0.14016498639212485 0.14819670165539395 -0.47083486141344677 -0.9208626968265157 -0.010986796082179107 0.18589876668703811 -0.2712265361683701 0.35046202270972654 0.1608772916997252
saeko 0.489972897177179 -0.06855995568966745 0.07586078435735348 -0.3040947645358117 -0.6464251550969256 0.020089902666065272 0.1778708371522522 -0.1639842991741506 0.26271234675215865 0.14034558010851594
smallness 0.41247014477901744 -0.0949703706380408 0.11107836811446062 -0.3589604902855405 -0.6297006572616237 0.01034085669663792 0.09947815262906406 -0.1810556651867281 0.306260985090548 0.13507758944260065
boiled 0.4122970473548933 -0.05497184340359491 0.14069368373787455 -0.3526464105658476 -0.5841110314621487 -0.012934728837005886 0.15977398161715303 -0.2003132165594163 0.2983672594652181 0.043872719260852656
22-year-old 0.5050837953249644 -0.07059965735292341 0.1650951114153325 -0.3534864924790876 -0.7010316054097561 0.0002545017417691383 0.18505104962925248 -0.14406303775283424 0.27908120479619036 0.06378858529551758
skates 0.46344816849737813 -0.10733501531418017 0.14081074097222782 -0.2835698326807883 -0.6618597548432218 -0.03553998972445434 0.19073402449851354 -0.2039338235657352 0.24750151017744604 0.10941562890148633
